dense/kernel:0
(784, 128)
[[-5.48192263e-02 -2.95482464e-02 -7.34348744e-02 -5.78865521e-02
   1.52519047e-02  3.65027636e-02 -3.99492532e-02  2.88682356e-02
   1.65466070e-02  1.63599700e-02  6.40004873e-06  4.44457754e-02
  -7.84884766e-02 -6.12413809e-02  6.85952604e-03 -9.52463597e-03
   5.41068614e-04  6.58474490e-02  4.81834039e-02  6.46176860e-02
   1.21726841e-03 -3.75744514e-02  1.07188150e-02 -1.47474483e-02
  -2.32281201e-02 -2.27694958e-02 -2.95664035e-02 -7.17643350e-02
  -8.04821551e-02 -3.14023346e-03  6.15991578e-02  2.28662044e-03
  -6.25486523e-02  8.10372010e-02 -4.15860862e-02 -1.50804669e-02
   4.22344431e-02  5.87868020e-02 -1.30669698e-02 -4.21813577e-02
  -6.89122081e-03  2.60892808e-02 -7.11839944e-02 -2.39224844e-02
   1.60469413e-02 -3.78078260e-02  6.80738315e-02 -2.03344561e-02
  -9.48391855e-04 -8.05145875e-02 -4.34032679e-02 -5.35991713e-02
   6.50476441e-02 -2.04756632e-02 -5.65294288e-02 -3.04800272e-03
  -3.07877138e-02 -6.69189095e-02 -5.74069992e-02  6.76308051e-02
  -5.71438819e-02 -1.94370784e-02 -5.81959039e-02  6.04484752e-02
   4.98153642e-02  6.90359622e-03 -4.54541333e-02 -3.14997695e-02
  -3.32136266e-02  3.30560580e-02 -1.24542713e-02  7.99490735e-02
   1.32373720e-02  5.79674765e-02 -1.15147233e-02 -5.17762452e-02
   7.90339485e-02  7.38546625e-02  2.02801749e-02  7.61443302e-02
  -4.37467545e-02  9.17366147e-03  1.47152096e-02 -2.98937820e-02
  -5.86565249e-02  3.23597640e-02 -1.94934905e-02  7.65497163e-02
   3.16001922e-02  1.64539739e-02  9.96638089e-03 -6.85044006e-02
   3.35461870e-02 -6.30328059e-02 -1.25675648e-03 -5.43081015e-03
   6.22313246e-02 -6.93496168e-02 -4.42062691e-02  4.23663110e-02
  -3.60699520e-02 -2.30311044e-02 -6.87584281e-02  8.53122771e-03
  -6.08169027e-02  4.63871658e-03 -2.88669579e-02  2.99156308e-02
  -6.19136542e-02  7.95020908e-03 -2.44114883e-02  1.70270652e-02
   8.00126866e-02 -3.94003354e-02  6.20181635e-02 -6.67377859e-02
  -2.96464264e-02  7.65945241e-02 -3.30489799e-02  4.84219566e-02
  -4.86219786e-02 -7.42990226e-02 -7.92177990e-02  2.72273198e-02
  -1.45177469e-02 -1.84888467e-02 -6.84287474e-02 -3.21681388e-02]
 [ 1.99081451e-02  4.86585721e-02 -6.26180172e-02 -4.91806045e-02
   6.57029971e-02  5.41044846e-02  3.56509089e-02 -7.72950500e-02
   2.40076259e-02  5.01017198e-02 -5.52686490e-02  7.15383813e-02
  -4.60108444e-02 -7.71657899e-02  6.88025579e-02  1.67585686e-02
  -4.72016968e-02 -7.19800293e-02  4.24891859e-02  7.33779743e-02
   2.44581178e-02 -7.50180036e-02 -1.24625862e-03  6.83919117e-02
  -7.24033713e-02 -5.52948117e-02 -2.01721862e-02  4.19095904e-03
   5.67219928e-02 -4.21686508e-02  3.27606872e-02  3.67689952e-02
  -3.35665122e-02  4.65879217e-02 -4.15495373e-02 -4.63947468e-02
   1.37829855e-02 -7.67712295e-02 -1.78484619e-03  4.32707444e-02
   9.28851217e-03  7.41321370e-02 -5.74901178e-02 -3.15393731e-02
  -3.90939415e-04  7.69830570e-02  1.07112303e-02  1.81209147e-02
   7.06867650e-02 -3.32303941e-02 -6.81687072e-02 -3.12542319e-02
   2.86676213e-02 -1.47551820e-02 -7.61131495e-02 -7.19720870e-03
  -7.22628534e-02  4.68912646e-02 -5.20586818e-02  6.96128681e-02
   1.84193850e-02 -2.19308510e-02  6.76868930e-02 -5.39502986e-02
   5.67680374e-02  1.23644844e-02  1.04213730e-02  5.25910333e-02
  -2.67689638e-02  3.47023830e-02 -4.82303761e-02  8.16793740e-03
  -7.83109516e-02  3.49094048e-02  5.18816188e-02 -8.08165148e-02
  -1.53549016e-04 -5.03756329e-02 -5.55625111e-02 -4.71239164e-02
   6.29640594e-02  3.53013128e-02 -5.47859818e-02 -1.85959041e-02
  -4.24835756e-02  1.99282691e-02 -4.23627682e-02 -1.66360438e-02
   3.27942520e-03  8.08068886e-02 -1.76513419e-02  6.77122250e-02
  -5.09135425e-04 -5.41853532e-02 -1.04813576e-02 -2.80448869e-02
  -3.32062766e-02  6.56617209e-02  3.18294764e-03 -8.01549330e-02
  -4.64751944e-02 -5.05338386e-02 -5.87519594e-02  2.82072723e-02
  -6.31033629e-03  6.09983578e-02 -4.78041433e-02 -4.97546420e-02
  -5.83402291e-02 -2.49213241e-02 -6.11284040e-02  5.89036122e-02
  -5.87196834e-02 -9.31624323e-03  2.85787582e-02 -3.67504843e-02
  -4.39430960e-02 -5.47143370e-02  4.76988778e-02  5.65286949e-02
   4.00919542e-02 -3.93927172e-02  5.44155762e-02  6.69412240e-02
   7.55315274e-03 -3.34951356e-02 -3.68028544e-02  3.27954143e-02]
 [-3.10463831e-02  4.15419787e-03 -1.24426112e-02  7.44872317e-02
  -2.48345360e-02 -1.09980181e-02  5.10796681e-02  5.51839247e-02
   8.22204351e-03 -3.75642814e-02 -7.80976862e-02  6.34495839e-02
   5.52269593e-02  7.54202828e-02  5.95601723e-02 -1.54989734e-02
  -7.49910623e-02  3.74521539e-02  8.40933621e-03 -7.69390315e-02
  -6.93963170e-02 -2.07638629e-02 -6.33016229e-02 -7.06384778e-02
  -2.01970935e-02 -4.47716825e-02 -4.87968922e-02 -4.23779488e-02
   1.09968409e-02  1.36783272e-02 -1.02489442e-03 -6.27605915e-02
  -3.59490290e-02  7.61724040e-02 -3.68279926e-02  5.82714602e-02
   3.69952694e-02 -3.04415002e-02 -5.54256141e-04  5.09979203e-02
  -6.08996153e-02  4.64342013e-02 -7.09493235e-02 -1.68352276e-02
   3.56445685e-02  3.91438156e-02  1.02469772e-02 -7.03900605e-02
  -1.90730356e-02  7.55330995e-02 -5.87615520e-02 -4.73487042e-02
   5.48801944e-02  1.34953111e-02 -3.54482979e-03 -4.79310006e-02
  -3.20890062e-02  5.68743721e-02 -2.98892185e-02 -2.18570344e-02
  -6.83565736e-02  5.23819551e-02  4.99970987e-02 -2.33445577e-02
   7.88128003e-02 -4.22918573e-02 -7.09382221e-02 -5.36050349e-02
   5.59209287e-03 -6.26631305e-02 -2.26043463e-02 -8.07140395e-02
   5.20571321e-03 -6.51342943e-02 -6.64781108e-02 -7.85372481e-02
   5.95876798e-02  6.42703548e-02 -2.22558528e-03  2.80097649e-02
   6.35216609e-02 -1.49157271e-02 -4.47880067e-02  3.69107425e-02
  -5.42506427e-02  7.99205154e-03  7.19151869e-02  4.24759537e-02
  -4.69453670e-02 -5.84385432e-02  5.61384037e-02  6.74535334e-03
  -5.84855750e-02  6.93400204e-03 -6.69046566e-02 -2.21464336e-02
  -2.42598988e-02 -7.21658915e-02  1.50602013e-02 -7.50126466e-02
   3.38761955e-02 -4.78452444e-03  5.33460751e-02 -2.54297480e-02
   1.97670087e-02 -3.88814099e-02 -2.50592642e-02  3.19292173e-02
  -2.05059461e-02 -2.76730284e-02  7.45330974e-02 -6.46036714e-02
  -1.44500211e-02  5.44884577e-02 -6.94095641e-02  7.39513263e-02
   3.28217149e-02 -7.03506842e-02  2.33498141e-02  5.77829704e-02
   5.43802008e-02  2.17258185e-03  6.74331412e-02  1.89765394e-02
   6.52345642e-02  7.34918043e-02 -4.94186580e-03 -2.16577724e-02]
 [ 4.09754962e-02 -7.90167153e-02 -3.69340070e-02  3.98710892e-02
  -7.59685785e-02 -2.28956379e-02 -5.42660952e-02  4.51616943e-03
   5.25464788e-02 -5.03023714e-03  4.80258390e-02 -1.24555081e-02
  -3.20087932e-02  1.95425153e-02 -6.06938526e-02 -9.42614675e-03
  -5.18784672e-03 -6.68499619e-03  3.30896899e-02 -3.72387581e-02
   6.63968548e-02 -1.37918591e-02 -6.75678104e-02  3.96206602e-02
  -6.55097514e-02  8.06301758e-02 -6.16935082e-02 -2.97214575e-02
   4.80108634e-02  1.60420313e-02  6.23112246e-02 -2.82596946e-02
   2.23140419e-02 -7.86742792e-02 -1.62566230e-02 -5.36510944e-02
   6.04401156e-02  4.12829742e-02  2.91864276e-02  7.96551332e-02
   3.47553939e-02  4.87994328e-02 -6.65091723e-02 -2.98178010e-02
   7.01501146e-02  1.87283680e-02 -3.26536857e-02 -3.92748490e-02
  -4.73528430e-02  8.87463242e-03 -1.60245299e-02  9.52596962e-03
   3.56204063e-03 -4.37696688e-02  5.39701208e-02  4.20589447e-02
  -6.63114786e-02  1.81993544e-02 -6.33965135e-02  6.51014075e-02
   6.14452884e-02  7.56085590e-02 -9.70868021e-03 -4.08609398e-02
   6.86150268e-02  3.49553674e-03  1.75981447e-02  3.59928906e-02
   7.85808340e-02 -1.98486187e-02  1.15167722e-02 -2.57552303e-02
  -6.01962954e-03  7.47322813e-02  5.62205240e-02  3.85318324e-02
   3.83459032e-04  7.73902461e-02  6.86505511e-02 -6.45946786e-02
   6.82539865e-02  3.07840183e-02  1.00269467e-02 -7.37846419e-02
   1.89495832e-03 -5.07836118e-02 -4.02357131e-02  6.25073388e-02
  -3.19986977e-02 -6.52218759e-02  6.96998611e-02 -3.15432996e-03
  -6.07782677e-02 -4.07149158e-02 -3.62879336e-02  4.22897264e-02
  -3.69570777e-02  2.55137533e-02  3.66827473e-02  4.87136468e-02
   2.15148032e-02 -7.43845999e-02  5.48028201e-03  1.52023211e-02
  -2.38133185e-02 -5.35956137e-02  5.81709296e-03  1.56528056e-02
   5.38708493e-02  6.78204969e-02 -2.09662765e-02 -5.45247421e-02
   3.22397128e-02 -1.71778351e-03  3.18572745e-02  7.38339871e-03
   7.71066919e-02  7.98508897e-02 -2.64701471e-02 -3.20548750e-02
   2.12505683e-02  4.77220938e-02  3.95035669e-02 -6.35730922e-02
   5.67070916e-02 -9.58920270e-03 -3.12329084e-03 -3.49233262e-02]
 [ 1.85803771e-02 -6.33925200e-04 -4.93045636e-02  6.82556853e-02
   4.60870564e-03  8.91723484e-03 -7.61113167e-02  3.04926857e-02
  -6.78740293e-02 -2.83857621e-02 -1.05754808e-02 -6.61168993e-03
  -4.32545543e-02 -3.49377133e-02  2.14518607e-02 -6.70062229e-02
   5.29826656e-02 -5.14079705e-02 -1.18008703e-02 -3.96102928e-02
  -1.79042071e-02  5.93847409e-02 -7.74263591e-02  6.31313100e-02
   2.75760069e-02 -2.51912102e-02 -3.32254991e-02  6.50333837e-02
  -3.87142897e-02 -6.56714514e-02 -4.63555083e-02 -7.29150176e-02
  -5.17065339e-02 -7.64282867e-02 -4.09477688e-02  6.80264607e-02
  -9.11965221e-03  4.29787338e-02 -6.78762794e-03  2.56591961e-02
   7.73613080e-02  5.61034679e-03  5.82163408e-02  5.98372295e-02
  -6.80113137e-02  6.59896433e-03 -2.75174156e-02  6.84968010e-02
  -6.35235757e-03  8.66456330e-03  2.77047828e-02  2.83316150e-02
   2.98220962e-02 -7.98938870e-02 -5.61519265e-02 -1.93321109e-02
   2.53739953e-03 -8.32556188e-03  3.63467038e-02  3.73561680e-03
   5.89170083e-02 -2.38884464e-02 -7.11644813e-02  7.03939125e-02
  -8.07619989e-02 -7.48713613e-02  2.43813619e-02 -7.48167858e-02
  -7.34089762e-02 -5.20645455e-02 -2.60046571e-02  2.40901113e-03
   1.05929375e-03  5.55798039e-02 -7.41311908e-02  6.12525716e-02
   2.73746774e-02  6.02511540e-02 -3.23294103e-03 -1.23413354e-02
   2.43392587e-02  5.79009950e-03  3.66506800e-02  6.48233220e-02
   7.60010704e-02  3.34106237e-02  3.77738327e-02 -6.58603683e-02
  -9.02093202e-03  3.23855057e-02 -3.95204872e-03  7.62797669e-02
   2.94267014e-02 -1.07488036e-02 -1.11642927e-02  8.03643242e-02
  -4.46802713e-02  3.84916291e-02  4.09734473e-02 -7.66926631e-02
   6.27067611e-02  5.53641543e-02 -1.82964876e-02  1.02173686e-02
  -3.46200056e-02  5.64043298e-02 -5.20725101e-02  1.70092359e-02
  -6.93857223e-02  2.75436193e-02  7.30307475e-02 -3.09940428e-03
  -4.86794710e-02 -1.54648721e-03  6.43559471e-02  1.44290999e-02
   4.62410972e-02 -6.13638684e-02 -5.21040522e-02 -7.56782144e-02
   6.09393492e-02  5.94902560e-02  1.86473653e-02  5.82341030e-02
   2.28012353e-03  8.52515548e-03  6.98196813e-02  2.89157778e-03]
 [-4.38784473e-02  4.76570502e-02  6.62669614e-02  3.52405310e-02
   3.91286165e-02 -7.18255043e-02  2.74854898e-03  8.90970230e-04
   1.57944784e-02  9.19304788e-04 -4.52773981e-02 -1.42796934e-02
   7.86691904e-03 -1.87646300e-02  3.58536318e-02 -2.73185596e-02
  -5.65025881e-02  7.17267022e-02  3.18455175e-02 -5.99573739e-02
  -2.75654718e-02  2.57191658e-02 -8.00072849e-02 -2.92121246e-02
  -6.18605316e-02 -6.80781603e-02  2.49485895e-02 -3.74974087e-02
  -3.13292444e-02 -5.78789338e-02  4.45759818e-02  1.09098926e-02
  -6.22987971e-02  8.03971812e-02  4.61043790e-02  2.49071494e-02
  -3.88402417e-02 -7.60680512e-02 -7.72083923e-02 -3.85426246e-02
   6.03715852e-02  6.08279780e-02 -3.40632759e-02  1.65933818e-02
   8.02098215e-03 -7.97912553e-02  1.40125677e-02  5.76881245e-02
  -2.50974298e-03 -4.19556610e-02 -5.23917377e-03  4.12487984e-03
   1.70324221e-02  2.01513767e-02  6.25321791e-02  3.69345695e-02
   5.61379120e-02  7.33055174e-04 -2.60563493e-02  7.19267800e-02
  -3.27183716e-02 -6.47815242e-02  3.32784131e-02  5.49178571e-03
  -2.50716619e-02 -1.70603096e-02 -3.68506387e-02  7.61677101e-02
  -4.84383851e-03 -4.96936589e-03 -1.83367878e-02 -4.70428504e-02
   3.08618397e-02  2.90618315e-02  1.81921199e-02  3.60315070e-02
  -7.01298192e-02  2.48868763e-03  6.71868101e-02  8.01658705e-02
   4.47859541e-02 -4.87656631e-02 -5.13576902e-02  1.91576779e-03
  -6.85256124e-02 -5.68714663e-02 -1.39525458e-02  5.02861217e-02
  -6.33794591e-02  5.86870834e-02  3.26118395e-02 -1.54355615e-02
  -7.00468570e-02  4.59069386e-02  6.12249151e-02 -5.95009327e-02
   6.67226985e-02  5.21172956e-02 -6.74475431e-02  2.75499597e-02
   5.94557747e-02  5.86101785e-02  1.68841556e-02  5.73800504e-03
  -7.04241693e-02  1.66687816e-02 -5.85541651e-02  6.52373657e-02
   3.31305861e-02 -6.73734769e-02  6.59227371e-05  8.31316411e-03
  -6.01491518e-02  8.74207169e-03  7.97380731e-02  2.39700079e-03
  -3.48539390e-02 -4.81116213e-02 -2.58035399e-02 -3.99912745e-02
   1.64998025e-02  4.73699942e-02  1.89624056e-02  1.85720026e-02
   2.96152383e-03  7.58351758e-02 -4.28464413e-02  5.86634800e-02]
 [ 1.76951662e-02  4.55652550e-02  4.81700376e-02  6.27090856e-02
   8.74145329e-03 -3.74938883e-02 -5.09336591e-02  5.76207265e-02
   4.61315289e-02 -4.30950522e-02 -2.22692303e-02  3.07079628e-02
   6.36439025e-03 -3.09528820e-02  3.11876833e-03  6.70114085e-02
   5.43245301e-02  1.95267349e-02  4.33357954e-02  5.43797240e-02
   3.13414633e-02 -5.24661988e-02  8.86084884e-03 -8.92371684e-03
   5.76192215e-02  4.46434692e-02 -5.37230931e-02  2.60992423e-02
   9.24617052e-06 -1.02699921e-02  2.88284570e-02  4.20765802e-02
  -7.91176260e-02 -2.90464759e-02 -4.51507717e-02 -2.91504376e-02
   4.63313684e-02  7.01159015e-02 -7.52391145e-02  2.39012092e-02
   4.34760749e-02 -4.46948521e-02  4.80280742e-02  6.13099858e-02
  -2.82732695e-02  1.02729276e-02  1.30526572e-02  2.08977610e-03
   5.74449375e-02  5.38735837e-03 -4.92936149e-02 -4.96348776e-02
   6.99627921e-02 -2.73872279e-02 -5.98668121e-02 -4.96429056e-02
  -5.73433004e-02 -3.51591185e-02 -9.13137197e-03  6.88317344e-02
   4.35384810e-02 -2.83241682e-02 -1.70941129e-02  5.04978746e-03
   2.00630724e-03 -5.42235076e-02 -8.10597539e-02  4.91767004e-02
   4.25924882e-02  2.52596065e-02 -4.11862098e-02  3.38210613e-02
   1.22306272e-02 -3.86790186e-02 -1.20275542e-02  6.45418093e-02
  -6.15647361e-02 -7.87519366e-02  4.12382856e-02 -7.03403577e-02
   6.63649663e-02  1.08604282e-02  4.68817279e-02 -3.88642214e-02
  -3.49288173e-02  8.09628144e-02  3.23520675e-02 -5.06363139e-02
  -7.49411136e-02 -4.14458625e-02 -2.76438668e-02  3.71471494e-02
  -4.30085920e-02 -7.70287439e-02 -4.52299640e-02 -7.58249909e-02
  -7.51178861e-02  1.25712678e-02 -5.27634881e-02  6.76194653e-02
   9.04858112e-04  4.27663177e-02  4.62173596e-02  6.58514127e-02
   3.96379679e-02 -3.78183462e-02  4.02216166e-02  7.92429969e-02
  -4.95133400e-02  3.74421999e-02 -7.25373626e-03 -6.17519319e-02
  -7.29790330e-02  4.26761806e-03  6.43457696e-02  6.72699735e-02
   6.38106987e-02  5.67505583e-02  3.40011194e-02 -6.20907545e-02
  -4.96680066e-02 -6.91644549e-02  1.67986751e-02 -7.06399083e-02
   5.48411533e-02  5.47633395e-02  1.22548193e-02  4.07844186e-02]
 [-4.46746647e-02 -6.82957172e-02  2.11528912e-02  1.45722404e-02
   8.05707499e-02  4.00681645e-02 -3.07998024e-02 -7.50094727e-02
  -1.32971853e-02 -4.17312793e-02 -6.73560128e-02  7.49296919e-02
  -4.93682027e-02 -2.42053643e-02 -4.69332598e-02 -8.03167745e-02
   7.49489293e-02  5.14194891e-02 -1.73032135e-02 -3.76953557e-02
   1.61811113e-02 -4.55827266e-03 -8.33701342e-03  4.06865850e-02
   7.60178193e-02 -3.98184508e-02 -5.87708130e-02 -3.32735553e-02
   4.19954211e-03 -4.73260395e-02 -3.13442722e-02 -7.25094378e-02
  -5.13524488e-02 -5.44592626e-02 -3.78844887e-03 -7.97699839e-02
   2.56061703e-02  5.14264181e-02  6.54838756e-02 -2.39953101e-02
  -4.93018925e-02 -3.03075649e-02  3.14842388e-02 -4.55053151e-03
   1.52645707e-02  7.92985186e-02 -7.46853873e-02 -2.55617499e-02
  -2.95497924e-02  5.19894809e-03  2.54553705e-02 -4.10848558e-02
  -3.57544869e-02 -1.29311755e-02 -4.20412123e-02  3.48917469e-02
   1.42464116e-02 -7.73555040e-02  1.12175867e-02  2.08257884e-03
  -1.03378892e-02 -3.09716165e-03 -4.56405431e-03  5.34269884e-02
   3.41336057e-02  2.98613682e-02 -1.26665086e-02  2.28324607e-02
  -1.45625696e-02  4.79471460e-02 -1.52414218e-02  6.51883855e-02
   6.17920607e-03  4.59603444e-02 -3.23109552e-02  8.10724422e-02
   1.81899145e-02 -3.09131630e-02  6.59941658e-02 -4.77002561e-02
  -5.48335910e-03 -3.83030996e-02  4.86555323e-02  6.14752248e-02
   2.78918818e-02 -2.44383141e-02  4.59404513e-02 -1.79145560e-02
  -6.57737181e-02 -3.64470482e-02  1.00716799e-02 -6.24483004e-02
   8.06793645e-02 -2.96896100e-02 -7.66573325e-02 -5.91133721e-02
  -3.88732329e-02 -4.77081463e-02 -3.98882218e-02  3.56766656e-02
   1.98155716e-02 -3.67687978e-02  3.77724394e-02 -9.00346786e-03
   5.16593456e-03  5.58136925e-02  1.24528036e-02 -4.40237746e-02
  -6.13741577e-02  4.03234288e-02 -6.05561659e-02  3.69086564e-02
  -3.98224704e-02 -6.74517006e-02  5.91063499e-03  2.61517614e-02
   7.12322816e-02  4.54220846e-02  3.13654616e-02 -5.89011349e-02
   5.65484390e-02  1.82238147e-02  3.02364975e-02  3.67255583e-02
   7.12766424e-02 -8.73961300e-03 -6.45658821e-02  3.74761969e-02]
 [ 1.59829855e-04  7.56151751e-02 -2.19711699e-02 -5.86850867e-02
  -1.18376687e-02 -4.68724407e-02 -7.45438635e-02  7.36228377e-03
  -4.93584014e-02  4.64565679e-02  7.20857605e-02 -5.43125235e-02
  -3.39356400e-02  2.68460065e-02  7.40414634e-02 -5.37813790e-02
   3.57921571e-02 -9.19957459e-03  8.01305473e-03  7.35630020e-02
   7.49307647e-02  4.96116951e-02 -4.04539444e-02  2.40951329e-02
   1.31897628e-02 -5.38742803e-02  6.12005517e-02 -1.75882205e-02
   1.22902989e-02  3.12971398e-02 -5.61973304e-02  7.10707977e-02
  -1.79100484e-02  5.90947047e-02 -3.86679731e-02  5.34083769e-02
  -4.08745892e-02 -7.01221824e-02 -4.77090180e-02  8.06661472e-02
  -2.32874714e-02 -5.28669655e-02 -4.41100225e-02  6.16228655e-02
   6.89082071e-02  3.44436020e-02  7.85481706e-02  2.81115472e-02
   2.68408433e-02  5.96762076e-02  6.07432947e-02 -1.59367546e-02
  -2.17001140e-03  6.77515939e-02 -1.20498091e-02 -5.66797853e-02
   2.64478475e-03  2.87574604e-02  4.65674028e-02  7.59597942e-02
  -6.11402020e-02  2.18958482e-02  6.98524714e-03 -6.45010471e-02
  -2.07884386e-02  6.02788404e-02 -5.10892570e-02  4.27404270e-02
   4.47036698e-02 -6.84872270e-02  3.59613448e-03  7.01728687e-02
   1.43602341e-02  3.81905138e-02  5.17239347e-02  5.76124266e-02
   2.22456753e-02 -7.42338002e-02 -4.66664694e-02  3.77172679e-02
   7.18934163e-02  5.84927276e-02 -4.89844941e-02 -1.28663331e-02
   1.86922252e-02  6.12908974e-02 -7.04479590e-02 -7.66578689e-02
   6.92106411e-02 -1.83732063e-02 -5.30890077e-02 -1.38312131e-02
  -5.72348908e-02 -2.58447491e-02 -1.95469223e-02 -3.40959765e-02
  -7.41527304e-02  3.21578532e-02 -3.56717184e-02  5.64704463e-02
   6.67268261e-02 -3.28739099e-02  3.09601724e-02  2.12108642e-02
   2.38257125e-02  6.20819554e-02 -4.52842638e-02 -3.71903926e-02
  -9.79834795e-03 -5.91518171e-02  7.62183443e-02 -1.78204551e-02
   7.78225437e-02 -6.26729131e-02 -7.96410739e-02  1.70583948e-02
   4.00683358e-02  4.50921431e-02 -1.10169873e-02 -6.81734607e-02
   2.89369598e-02  5.94385043e-02  6.97272345e-02 -4.64988835e-02
  -5.91978431e-03  2.23179460e-02  5.77950850e-02  5.46461418e-02]
 [ 2.54033133e-02  5.88936284e-02  1.99951604e-02  2.56735086e-03
   2.93447450e-02  1.35732219e-02 -8.25028121e-03 -6.65554702e-02
  -7.85072520e-02  2.99141854e-02 -1.58245340e-02  4.59320024e-02
   1.74067691e-02 -5.95173687e-02 -7.65258074e-02  2.58555934e-02
  -3.11628953e-02  4.00826335e-04  3.65360081e-02 -7.84035623e-02
  -7.95598552e-02 -3.57990600e-02  1.98444799e-02 -5.16320802e-02
  -7.72301704e-02  7.19238743e-02  2.02296600e-02  5.94867244e-02
   7.73382857e-02  4.23027277e-02  7.59920701e-02 -8.04111063e-02
  -1.86631829e-03 -7.79858679e-02  6.07606992e-02 -7.35609606e-02
  -5.01963645e-02  3.58189046e-02 -3.57961655e-03 -1.77878290e-02
  -4.52751741e-02 -5.70451617e-02 -6.63535520e-02  7.70184770e-02
   3.72462794e-02  7.88892284e-02  2.48134583e-02 -5.02703339e-03
  -2.97889672e-02 -6.61812499e-02  3.51786315e-02  4.36384752e-02
  -8.77030194e-04 -7.67299533e-03  7.92189762e-02 -6.84817880e-03
   1.02064237e-02 -8.03547725e-02  7.19519183e-02  2.80799046e-02
  -7.15129152e-02 -8.07952434e-02 -7.13859051e-02 -2.96399072e-02
   7.94959590e-02 -5.53384796e-02 -5.28423116e-02  8.09460804e-02
   7.70278350e-02  5.92288449e-02  2.88450047e-02  5.91421500e-02
  -1.11764520e-02  2.03391165e-02 -5.36436699e-02 -4.57386747e-02
   5.02668098e-02 -1.26216635e-02  8.72857124e-03  2.83211917e-02
   7.19350651e-02  3.60175967e-04  6.28366396e-02  2.87917331e-02
  -4.29472700e-02  2.78429389e-02  2.47586519e-02  1.47242397e-02
   5.43347970e-02  2.89340988e-02 -3.09507363e-02 -7.37725943e-02
  -6.99524134e-02 -1.35642141e-02 -1.62715390e-02 -2.90182009e-02
   1.01417974e-02 -3.95243317e-02  5.44681326e-02  6.85041919e-02
   4.48223874e-02 -1.56248808e-02 -1.27822682e-02 -8.05407912e-02
   1.01523846e-03  1.76041946e-02  4.33250070e-02 -5.28542995e-02
  -7.72827864e-03  5.67325428e-02 -5.66763580e-02 -5.64052016e-02
  -4.86316681e-02  5.90874180e-02 -4.45721112e-02 -7.28753582e-02
  -7.86699355e-04  6.70953766e-02  2.48537585e-02 -3.40871178e-02
   5.47851399e-02  1.43103823e-02 -1.62951648e-02  2.14012936e-02
   7.52334669e-02  1.47633031e-02 -3.18311900e-02  2.91287750e-02]
 [-1.77844688e-02  1.13280118e-02 -5.80270588e-03 -8.03044364e-02
   2.44902968e-02  3.92217860e-02  3.73626575e-02 -2.30119787e-02
  -6.28900826e-02  6.03674874e-02  3.42382491e-02 -3.68764549e-02
  -1.78042501e-02 -6.41404390e-02  4.53269109e-02  5.34385368e-02
  -6.14015982e-02  6.23670444e-02  3.12786549e-02 -8.00405443e-02
   7.37574324e-02 -8.10800344e-02 -6.83105737e-02  3.21171060e-02
  -5.66621460e-02  2.98750401e-02  1.20371655e-02 -7.90665746e-02
   5.22832051e-02 -3.60827744e-02 -1.39161125e-02 -3.36097926e-03
   5.70247248e-02  1.18768215e-03  7.47721568e-02  7.92728737e-02
   3.68230045e-02  2.87231579e-02  6.46494105e-02  2.55829692e-02
   1.45949274e-02 -3.92102972e-02  7.87556171e-03  7.31118694e-02
  -5.06475568e-03  2.54863128e-02 -2.51172818e-02 -7.24065602e-02
  -2.68008523e-02 -7.92215466e-02 -3.99873406e-03  8.63528252e-03
   2.82122940e-03 -1.88749917e-02  2.81028599e-02  3.16129401e-02
  -7.63295069e-02 -7.80900046e-02  4.26341072e-02  6.42627701e-02
   5.83378151e-02  1.55127794e-02  1.68114230e-02  5.23958281e-02
   2.28684694e-02 -3.47230211e-02  1.46732032e-02  2.25894153e-02
  -4.84684706e-02  5.05161658e-02  2.93648243e-03  7.87763670e-02
  -3.43623608e-02 -2.56381184e-03 -1.07387900e-02 -9.89153981e-04
   7.52979517e-03 -6.66601658e-02 -7.72917196e-02 -3.17931324e-02
   5.66481724e-02  9.98678058e-03 -1.59046054e-03  1.01508126e-02
  -2.87058689e-02 -4.01911959e-02  1.23732015e-02  4.26930711e-02
  -3.69593017e-02  5.48435524e-02  6.80861846e-02 -5.64350933e-02
  -3.82175297e-02  2.14796513e-03 -3.26575749e-02  1.62183195e-02
  -7.30784461e-02  7.43686482e-02 -4.62562479e-02 -7.24841803e-02
   1.89127773e-02 -2.34445743e-02  9.34559852e-03  4.52364013e-02
   3.62265706e-02 -2.81118751e-02  1.63659230e-02 -7.87551105e-02
   5.43819740e-02  6.78919256e-03  3.47479284e-02  7.57353529e-02
  -6.73592240e-02  2.01092958e-02 -1.69350877e-02  4.23472971e-02
  -5.29698059e-02  1.60371959e-02 -5.65824360e-02  1.35540590e-02
  -5.77331334e-03 -7.11767226e-02  7.07593635e-02 -7.50662312e-02
  -2.42102742e-02 -7.42236078e-02  4.67591211e-02  3.75272259e-02]
 [ 2.38085836e-02  6.77168295e-02  4.15502489e-02 -7.60158002e-02
  -5.54477200e-02  3.89409810e-03  7.55516663e-02  6.50765002e-03
   7.53348842e-02  1.84407532e-02 -3.04483473e-02  5.31862602e-02
   6.09707162e-02  1.57153681e-02 -4.26152311e-02 -2.87951939e-02
  -8.04114714e-02 -5.04799411e-02  7.65940174e-02  6.64858744e-02
  -1.25081837e-02 -6.00828007e-02  6.53717667e-03  4.61665317e-02
  -2.39097960e-02  6.69783428e-02  7.45663121e-02 -8.02444667e-03
  -5.70822880e-02 -1.29868835e-02  2.06176043e-02 -3.53166871e-02
  -4.70033623e-02  7.06832334e-02 -2.11411119e-02 -9.29505378e-03
   5.13783172e-02  5.38766608e-02 -5.96509948e-02 -4.28067967e-02
   5.09952381e-02 -4.30027694e-02  2.25613341e-02 -7.00166747e-02
   4.26574051e-03  4.84063700e-02 -2.03781575e-02 -4.03978452e-02
   6.57045171e-02 -7.34653920e-02  2.00820863e-02 -3.37010622e-03
   1.49716511e-02 -6.11514002e-02 -2.48696543e-02  2.11344808e-02
  -4.02154848e-02 -6.69755489e-02 -2.55649611e-02 -1.08296424e-02
  -4.33988385e-02 -6.21589422e-02  4.57690880e-02  4.84804437e-02
   7.34585300e-02 -6.26373738e-02  5.58464602e-02 -1.28728673e-02
  -2.74748690e-02  5.98575547e-02 -7.82897323e-02 -6.52740300e-02
   3.45873013e-02  1.10081583e-03  8.85458291e-03 -7.02142939e-02
  -4.11166996e-03 -3.31809819e-02 -6.97402656e-03  3.96674871e-03
  -5.89433126e-02  7.83961341e-02 -6.73296377e-02  8.18232447e-03
   2.02582777e-02  5.44977412e-02  6.10955060e-04  7.61177763e-02
   4.73910496e-02 -6.09174371e-04 -6.16861992e-02  1.49795860e-02
   7.76477158e-03 -2.85149626e-02 -2.66135223e-02  5.26556447e-02
   3.23776156e-02  7.51045272e-02  2.82585546e-02  7.19575062e-02
   2.40675211e-02  6.88472167e-02 -3.84087265e-02 -5.09549305e-02
  -1.20354593e-02  6.52154312e-02 -7.33906478e-02 -6.88130409e-02
  -8.01701918e-02  5.62141165e-02  1.54402405e-02  2.54133493e-02
  -4.60241102e-02  7.21788183e-02  4.86389920e-02  7.89173320e-02
  -7.01633841e-03 -2.77088061e-02 -5.94771057e-02 -2.03809068e-02
   1.57133713e-02  7.55816922e-02  1.67668685e-02 -6.86224625e-02
   2.96593085e-02  6.58606067e-02  2.34845877e-02 -4.63883840e-02]
 [-8.81430730e-02 -5.61660118e-02  1.09132379e-02  1.06306579e-02
   7.15359226e-02  1.02667950e-01  1.27867162e-01 -5.16583882e-02
  -4.61924113e-02 -4.69943322e-02  3.24089006e-02 -5.19123524e-02
   2.05876715e-02 -5.78727014e-02  4.19903174e-02 -5.82967773e-02
  -8.04534033e-02 -2.59748264e-03  5.95393367e-02 -5.14827743e-02
   3.11664362e-02  8.32889527e-02 -6.77932426e-02  8.15407485e-02
   3.73933315e-02 -5.96631542e-02  3.03034186e-02 -4.35455032e-02
   4.01880480e-02 -7.97539577e-03  7.42125735e-02  1.54632516e-02
   4.89935055e-02  4.13527489e-02 -1.04334801e-02 -2.14311853e-02
   1.32666901e-02  2.17717793e-03 -1.27522334e-01  2.32575592e-02
  -2.03256160e-02  1.11014381e-01  8.51560850e-03 -6.65394366e-02
   4.20424677e-02  3.34548391e-02 -9.36417207e-02  3.64741273e-02
  -8.02492872e-02  2.27959082e-02 -2.70019230e-02  5.31549864e-02
  -4.43314807e-03  1.06506445e-01  3.57318223e-02 -1.83698796e-02
   1.16376504e-02 -9.81708169e-02  9.49953794e-02 -3.57060470e-02
   6.66053966e-02  4.09896746e-02 -4.08380069e-02  9.81206447e-02
  -9.23632458e-02 -5.40476069e-02  2.81757712e-02 -3.94631661e-02
   9.23348889e-02 -1.08661942e-01 -2.29166448e-03  3.24999020e-02
   6.41045868e-02  1.07635871e-01  2.07495540e-02  5.13826646e-02
   9.81551223e-03  8.35940763e-02  8.51867124e-02 -6.68265447e-02
   3.00433729e-02  4.72174175e-02  7.06834644e-02  4.62385453e-03
   3.44685279e-02 -2.17255950e-02  3.56160142e-02  1.50645326e-04
   2.46473644e-02  3.19058783e-02 -4.72014621e-02  7.12771192e-02
  -2.71945503e-02 -5.76404110e-03 -4.66234237e-02  4.30084392e-02
   9.07487422e-02  9.76662338e-02  7.57368132e-02  4.49510440e-02
   6.79378659e-02  6.02981858e-02 -2.94603910e-02 -4.84134257e-03
   6.06402792e-02  7.55629167e-02 -7.93412477e-02 -3.31279971e-02
   1.38217032e-01  3.19817327e-02 -6.63115606e-02 -2.03946345e-02
   1.22641981e-01 -1.90603286e-02  1.94248315e-02 -1.10939154e-02
  -2.69363243e-02  1.73766296e-02  7.06890821e-02 -2.96635590e-02
   8.07526782e-02  4.40953560e-02  3.60011160e-02 -2.50910223e-03
   4.88684997e-02 -2.38565598e-02  7.38357380e-02  4.33444530e-02]
 [ 1.82060394e-02 -6.34895265e-02  1.02256685e-02 -1.61360241e-02
  -1.13465253e-03  1.43068815e-02  6.57470524e-02 -1.71451010e-02
  -4.80961688e-02 -6.45716861e-02 -2.59512626e-02  4.13538739e-02
   9.57550034e-02 -5.87353148e-02 -5.97758070e-02  4.09029201e-02
  -1.09360650e-01  9.91232470e-02  3.68290991e-02  3.94427627e-02
   5.08813336e-02 -6.83088592e-06  3.88118736e-02  4.02094796e-02
   5.55312894e-02 -6.96398616e-02  1.11747742e-01 -1.00370355e-01
  -7.47519955e-02  2.38890927e-02 -5.20716012e-02  1.93110518e-02
  -3.34197730e-02 -4.31141770e-03 -3.90353054e-03 -5.91274686e-02
   5.99190220e-02  1.19031511e-01 -6.02470078e-02  9.03348401e-02
  -6.17995150e-02 -2.05146987e-02 -1.76837319e-03 -2.68321820e-02
  -8.64692554e-02  6.32939339e-02 -1.74654927e-03 -7.63604194e-02
  -1.35990409e-02 -1.38805658e-02  9.25903991e-02  4.81729675e-03
   8.66056711e-04 -4.09698300e-02 -7.98956156e-02 -2.31026895e-02
   3.31746601e-02 -1.34306038e-02  2.53013670e-02  6.54872805e-02
  -1.70533657e-02  8.50903541e-02  3.36801074e-02  5.54142287e-03
  -4.23997780e-03  5.30722365e-02 -7.75267035e-02 -7.41378814e-02
   9.67736915e-03 -4.54682566e-04  6.16726950e-02  4.07958031e-02
  -1.36181368e-02  9.26804394e-02  1.84491388e-02  5.23418821e-02
  -6.64010346e-02  3.82156437e-03  7.47309625e-02 -1.84148047e-02
   6.03094846e-02  3.63482572e-02  1.12801874e-02  8.01664740e-02
   2.29723435e-02  4.87049446e-02 -2.24047881e-02  3.06613781e-02
   5.40189072e-02  4.50808741e-02 -5.05273901e-02 -1.09551856e-02
  -3.87184545e-02  3.65601368e-02  2.83085871e-02  6.00372627e-02
   4.87022437e-02  6.63793534e-02 -5.08763194e-02 -7.50622153e-03
   2.72644907e-02 -1.91303305e-02 -6.57044947e-02 -4.31354381e-02
   9.89304781e-02  7.33943060e-02 -2.17078514e-02  1.99408121e-02
   1.22359201e-01 -4.48463596e-02  2.74706278e-02  4.72943857e-02
   1.00590430e-01  8.41982067e-02 -5.82729392e-02 -5.23180850e-02
   1.07818715e-01  2.18598619e-02 -8.80018026e-02  5.27877361e-03
  -5.98107502e-02 -8.00264906e-03  1.12012802e-02  3.66460755e-02
  -3.14036831e-02 -5.28183170e-02 -2.33070217e-02 -8.20071027e-02]
 [ 2.04794593e-02  9.38217640e-02 -3.49745154e-02 -3.45323049e-02
   9.28729400e-03 -8.07925910e-02 -1.07940041e-01 -8.08133334e-02
  -2.36075781e-02 -6.74960017e-02  3.39489654e-02 -7.77750462e-02
   5.24005629e-02 -5.41852601e-02 -7.68002421e-02 -6.92926124e-02
   4.04758379e-02 -9.53103881e-03  1.14561275e-01  8.32361877e-02
   9.81847197e-02  3.17127965e-02 -7.88362846e-02 -2.83174869e-02
   7.79020041e-02 -9.66934022e-03  2.99008861e-02 -6.25813678e-02
   9.89778638e-02  5.57443080e-03  1.10877678e-02  1.16233125e-01
  -1.58977434e-02 -1.72025599e-02 -3.50618064e-02 -2.32748929e-02
  -5.59351221e-02 -1.97274350e-02  4.93567213e-02  2.88820546e-02
  -2.63663996e-02  6.35988489e-02  4.58309539e-02  5.43154851e-02
  -7.32517168e-02  6.03933968e-02 -1.75398700e-02 -1.74004287e-02
   2.17674617e-02  1.20717287e-03  5.33223674e-02 -2.25154087e-02
   8.44635069e-03 -4.72116098e-02  4.53367904e-02  5.12603261e-02
   7.55029125e-03  2.96632480e-02 -3.47254686e-02 -4.77400757e-02
   3.89992595e-02 -9.45061911e-05  6.35979921e-02  7.52090290e-02
  -1.02872856e-01  3.59316841e-02 -4.43855375e-02 -5.67991957e-02
   1.61903426e-02  9.85548645e-02 -7.37679005e-02 -4.89961952e-02
  -6.73654154e-02 -3.73376235e-02  8.09882283e-02  9.00695547e-02
   6.63944706e-02 -5.66791818e-02 -3.65604609e-02  6.10487647e-02
  -2.41576359e-02  4.39035008e-03 -5.13517708e-02 -5.56340180e-02
  -6.78792782e-03  3.31827998e-02  8.15121830e-02 -3.71670909e-03
  -6.98856041e-02 -8.02277178e-02  4.86416668e-02 -6.77351728e-02
  -8.22054669e-02 -5.59599847e-02  1.08893745e-01 -6.79593906e-02
   8.97517875e-02  8.04652199e-02 -7.15838075e-02  6.49118796e-02
   1.58934947e-02 -6.83353320e-02 -1.83781162e-02  2.68142372e-02
   7.43178874e-02 -2.39879042e-02 -5.26772067e-02  2.55236011e-02
  -4.74641807e-02  2.15513278e-02  1.87022910e-02  1.43401772e-02
  -3.49171273e-02  1.03865385e-01 -8.83963704e-02  1.23611959e-02
  -7.60329003e-03  4.10474092e-02  2.23677829e-02  3.95476371e-02
   5.82187250e-02  2.43491381e-02 -8.08409974e-02 -4.70887423e-02
  -1.73882544e-02 -9.75446701e-02  6.43151626e-02  5.14635816e-02]
 [ 1.37522062e-02  8.23854953e-02 -8.07892308e-02  7.49255344e-02
   2.44015045e-02 -3.40479724e-02 -5.37035502e-02 -6.15682229e-02
   6.85958937e-02  5.65323308e-02  7.29860738e-02 -7.68696666e-02
  -5.71095124e-02  7.42644891e-02  4.83889058e-02  2.20470950e-02
   3.67628038e-02  4.00581397e-02  1.52083561e-02 -2.45442428e-02
  -2.84147672e-02  5.71779497e-02 -2.62628868e-02  3.08426153e-02
   1.95680447e-02  2.02644058e-02 -6.87708482e-02  3.32134739e-02
   1.20933168e-02  5.08022793e-02 -5.35903573e-02 -3.36512439e-02
  -4.34578210e-03 -5.61559647e-02  5.66017553e-02 -8.21615756e-02
  -6.05112240e-02 -6.40049158e-03 -7.32844323e-03  1.75203476e-02
   4.92472984e-02  6.04279116e-02  2.00486649e-02 -1.56815797e-02
   2.02846378e-02 -2.17561070e-02 -2.40377262e-02 -1.18956044e-02
  -1.33516025e-02  7.23476484e-02  7.59374425e-02 -4.23394106e-02
   5.90564311e-03  2.52652597e-02  6.87069669e-02 -1.92876579e-03
  -6.66612387e-02 -6.02662656e-03  6.66904598e-02 -2.19627395e-02
  -9.96425748e-04  6.05482012e-02  3.02411746e-02  3.31016667e-02
  -6.35604486e-02  4.39940915e-02  6.42289892e-02  3.10872868e-02
  -4.56915163e-02  3.37254331e-02  2.45053768e-02  5.75398877e-02
   7.86166564e-02  5.50539605e-02 -2.63185427e-02  1.32655463e-04
   3.79416496e-02 -1.40150860e-02  6.15475252e-02  7.45161623e-02
   7.37191513e-02 -5.94913065e-02  6.05168417e-02 -5.31675853e-02
   8.34830627e-02 -4.17166948e-02  3.48865725e-02 -5.34816980e-02
   8.13293457e-03  4.52885479e-02 -6.80608302e-03  4.71914336e-02
   4.05226722e-02  4.97275703e-02  8.99741873e-02 -1.55936107e-02
   2.82909744e-03  2.13045776e-02 -3.90343778e-02 -7.59727508e-02
  -6.07116707e-02  7.31190806e-03 -5.77447824e-02 -2.13877149e-02
   4.47151251e-02 -6.36586472e-02 -4.37529869e-02 -4.13072780e-02
   5.31871989e-02 -5.34816086e-03 -6.58196509e-02  5.44550344e-02
   6.48098215e-02  3.15727852e-02 -7.88466632e-02 -1.70468464e-02
   1.30368667e-02 -9.42068920e-03 -8.10671076e-02 -4.99934703e-02
   5.13075218e-02  3.73707935e-02 -3.84394340e-02  4.60568443e-02
  -1.05142016e-02 -2.17554383e-02  5.71497306e-02 -7.77415186e-03]
 [-1.89454816e-02 -1.02641135e-02 -8.06583092e-02 -6.98888674e-02
   6.96453825e-02  5.45167103e-02  1.05246156e-02 -6.28288612e-02
   7.11300895e-02  2.38145962e-02  3.96735892e-02  4.30464372e-02
  -3.05219665e-02 -6.38359785e-02 -2.34498084e-03 -6.66020513e-02
   5.33979163e-02  5.45194969e-02  1.50536075e-02 -2.97478177e-02
  -2.38260217e-02 -5.32934926e-02  2.52758712e-02  5.17160222e-02
   7.92913362e-02  2.54979730e-02  2.05592811e-02 -3.35413739e-02
  -6.86127543e-02 -5.77129424e-04 -6.95242062e-02  7.53596202e-02
   6.18554652e-03 -7.62920305e-02 -2.71938741e-03  7.04996213e-02
   2.64367163e-02  1.94571689e-02 -2.31168419e-03  5.33256009e-02
  -8.67121667e-03  2.10268646e-02  2.61313021e-02 -3.28581482e-02
  -3.53399292e-02  1.01049170e-02 -1.84325501e-02  1.57447010e-02
  -7.01937526e-02 -5.83302490e-02 -6.33351579e-02 -5.56774959e-02
  -1.25475749e-02 -1.99078918e-02  6.26754239e-02  6.20985851e-02
   9.23498720e-03 -5.90569079e-02  7.36513808e-02 -7.55525678e-02
   5.85541502e-02  6.46897405e-03  5.53310290e-02  5.95646352e-03
  -3.13727558e-02  5.18685654e-02  1.55717954e-02 -1.02941468e-02
   2.64055207e-02  5.84920123e-02  6.04388788e-02  2.80784369e-02
  -8.01267773e-02  6.66374937e-02 -1.16459876e-02 -1.90368369e-02
   7.51639158e-03  3.75509560e-02 -4.11660187e-02 -4.38848101e-02
  -7.89834559e-02  5.25172055e-03 -4.91001382e-02 -1.24537498e-02
   6.22821078e-02  9.39212739e-03 -5.08473888e-02 -9.16387886e-03
   2.81817988e-02 -2.06309892e-02  2.63215899e-02  6.75503835e-02
   4.14498150e-04 -2.03626901e-02  1.45948082e-02 -2.41089612e-02
  -6.87613487e-02 -2.57174820e-02  5.25265411e-02  6.77424893e-02
   3.97721156e-02 -6.09376132e-02  7.29084983e-02 -5.98701015e-02
   1.50147751e-02  6.46044835e-02 -2.39400417e-02 -3.67236622e-02
  -5.88404387e-03 -8.10090080e-02  7.00902939e-03  6.20317981e-02
   6.63043782e-02 -2.22242884e-02  2.52313763e-02  2.98105329e-02
   1.97844356e-02  7.77065083e-02 -5.56236207e-02 -6.78131357e-02
   5.49540296e-02  3.09624746e-02  3.08270007e-03 -2.16536969e-03
  -5.40525392e-02  5.43043688e-02  2.96251327e-02 -6.20992444e-02]
 [ 2.08293796e-02 -4.29995619e-02 -7.23955333e-02  5.27344570e-02
   7.41676465e-02 -7.09486827e-02 -4.39152494e-02  3.35758328e-02
  -6.90877587e-02 -4.96957563e-02  6.07299432e-02  2.34644935e-02
  -7.42046162e-02 -5.13638034e-02  2.54326686e-02  3.92983630e-02
  -5.89955822e-02 -1.44496337e-02 -3.57991569e-02  2.81431451e-02
  -5.10929301e-02  2.50032544e-03 -2.05159262e-02  5.30421659e-02
  -5.66382632e-02  7.20069781e-02 -1.43126994e-02 -7.85598904e-02
  -5.84371686e-02  5.25234565e-02 -6.90348297e-02 -9.96661186e-03
  -6.85710609e-02  6.18141219e-02  3.04282457e-03  4.44473997e-02
  -9.68216360e-03  3.38836759e-02  3.41754183e-02 -7.38666579e-02
  -1.66866928e-02  3.36755067e-03  7.80364349e-02 -7.46835768e-03
  -4.96713892e-02  5.42843416e-02  6.98411241e-02 -7.87553042e-02
   6.90659806e-02 -3.36379483e-02 -4.89266962e-03 -3.49300168e-02
  -5.13456613e-02  2.82733887e-02 -7.47338682e-02  6.45160154e-02
   5.17924801e-02 -7.96496794e-02  5.86583838e-02  2.36368775e-02
   6.73003569e-02  4.11832333e-03 -2.82987393e-02  2.63697654e-02
  -5.64257354e-02 -6.61411062e-02 -3.12604792e-02  7.44087324e-02
   3.36647034e-03 -1.77408606e-02 -3.68509293e-02 -7.05198795e-02
   2.96182483e-02 -7.98729807e-02 -5.62808365e-02  3.70251834e-02
   6.77647516e-02 -6.43047243e-02 -7.48611912e-02 -1.90555342e-02
  -1.04977936e-03 -7.58881718e-02 -1.86398625e-04 -1.54938102e-02
  -1.28707811e-02  5.68824932e-02 -7.42824301e-02  7.64963403e-02
  -3.70737053e-02 -7.64576793e-02 -2.64469050e-02  5.81321642e-02
   2.62619555e-03 -3.98459658e-02  2.34982595e-02  2.54859254e-02
   1.46861598e-02 -3.15423533e-02 -1.00896806e-02 -4.93368506e-03
   2.59601995e-02 -8.09044689e-02  6.53374866e-02 -5.95679805e-02
  -6.35408387e-02 -5.68130240e-02  4.91502360e-02  1.66272670e-02
   3.42857242e-02  7.30802640e-02 -7.04467595e-02  3.81109864e-03
  -9.97268409e-03  7.90389404e-02 -6.99130222e-02 -3.70850191e-02
  -5.75626716e-02 -2.15427876e-02 -4.34905812e-02  6.92787021e-03
   3.25504392e-02 -1.63048357e-02  6.71192929e-02 -1.86788067e-02
  -5.36251627e-02  2.40384787e-03 -7.73941949e-02 -7.76025057e-02]
 [ 6.32904693e-02  6.73041418e-02  7.48627707e-02  6.09832481e-02
  -5.46224788e-02  3.43440101e-02 -3.39097269e-02 -3.89480703e-02
  -2.72122547e-02 -2.75070220e-03  7.34525099e-02  3.52285057e-02
  -7.85835236e-02 -1.73227265e-02 -3.28860953e-02  4.49474826e-02
   4.86917719e-02 -1.67247504e-02 -5.64324260e-02 -3.14344056e-02
   4.76256236e-02 -3.30863222e-02  1.41573176e-02 -7.96780661e-02
  -2.35840641e-02 -7.07413405e-02 -5.53832278e-02  3.80433872e-02
   6.96670339e-02 -6.33594468e-02 -4.80800122e-03 -2.06712894e-02
  -5.62930778e-02 -3.21466550e-02 -4.05154973e-02  6.92427978e-02
  -2.98078619e-02 -2.53805704e-02 -1.23322457e-02  9.22352076e-03
   4.34973463e-02  1.65171102e-02  3.19574699e-02 -2.44169421e-02
  -1.96252018e-02  7.92850778e-02  2.34352723e-02  4.54591215e-03
  -3.18663269e-02 -2.31283903e-03  7.44738802e-02 -4.51592244e-02
   8.29614699e-03 -5.06941751e-02  1.79958344e-03  6.88046589e-02
  -4.39114980e-02  6.02412745e-02 -4.90136743e-02  6.03460595e-02
  -7.53064528e-02 -7.24195167e-02  9.51664895e-03 -6.64184391e-02
   1.94705352e-02  2.23041773e-02  1.86073706e-02  2.60277465e-02
  -5.13460673e-02  3.28514203e-02 -6.93089887e-02 -5.30540198e-03
  -1.17100403e-02 -4.75939922e-02  7.28441253e-02 -1.77102461e-02
   5.30392751e-02  6.83838204e-02 -4.99174297e-02  7.69442692e-02
  -2.07999647e-02  7.91656598e-02 -3.11158448e-02 -2.52220035e-03
   1.18348822e-02  5.85213304e-04  5.03994450e-02  2.56675109e-02
   1.78296417e-02  2.34769285e-02 -3.77783738e-02 -4.04755659e-02
  -4.15630713e-02 -1.99934244e-02  5.38518056e-02 -3.94622758e-02
   7.05400631e-02 -2.36380175e-02  2.19052881e-02  5.71297035e-02
  -6.15329444e-02  5.22081628e-02 -4.11195308e-02 -7.06342459e-02
   7.57475197e-03 -4.72640432e-02 -7.03307837e-02  1.33249760e-02
  -4.78815548e-02  7.33398274e-02 -2.25946382e-02 -3.03298980e-02
  -2.94677392e-02 -6.96555078e-02 -3.15621346e-02 -1.60984546e-02
   8.39011371e-03 -6.06849790e-02 -6.35633469e-02 -1.22428238e-02
  -7.76767507e-02  4.58292663e-03 -6.94971085e-02 -7.76817948e-02
  -1.21198371e-02  1.83472484e-02 -1.85512006e-03 -2.54151486e-02]
 [-6.21441491e-02  2.82084122e-02 -3.89032066e-02  2.34889016e-02
   3.59538049e-02  1.60283595e-03  5.78430966e-02 -9.18882340e-03
  -6.22378625e-02  4.82376441e-02  1.47540420e-02  1.01837590e-02
   3.69127169e-02 -6.45008311e-02 -7.61461258e-02  2.24699602e-02
   5.12223616e-02 -1.14748031e-02  5.88754788e-02 -2.58191824e-02
   6.63945153e-02  1.85957700e-02 -1.06033683e-03 -4.52336557e-02
   1.48749053e-02  7.86362961e-02  3.43355536e-03  3.30758393e-02
   5.37074730e-02 -7.58882463e-02 -2.56129205e-02  5.10193929e-02
  -4.90325093e-02  5.52311912e-02 -1.24312416e-02  2.52717510e-02
   4.14567888e-02  4.64715585e-02 -1.78688765e-02  2.38090083e-02
  -5.73263764e-02  1.56365409e-02  5.27971312e-02 -6.72406405e-02
   6.88146576e-02  2.99880356e-02 -3.54734026e-02 -7.75495172e-03
  -5.85258007e-03 -2.90038511e-02  4.61680815e-02 -3.34656425e-02
  -1.51324496e-02  5.20048812e-02 -8.26905668e-03 -2.46730410e-02
   7.08663240e-02 -9.89283621e-03  2.52489522e-02  3.97201702e-02
   6.19625077e-02  1.74149871e-02  3.24776098e-02  1.56736150e-02
   5.04096225e-02  1.63291991e-02  1.83812678e-02  3.69825810e-02
  -9.58964229e-05 -1.75367072e-02 -8.10075551e-03  4.93804440e-02
   5.91524914e-02 -5.56917898e-02 -7.15297237e-02  1.22825876e-02
   8.07370171e-02  6.47274405e-03  4.97454777e-02  1.50113925e-02
  -4.39850800e-02  3.94766480e-02 -5.16415574e-02 -1.60618275e-02
  -6.51697442e-02 -6.88523054e-04 -2.14035921e-02  2.14852542e-02
  -5.96839488e-02 -4.26073037e-02 -4.35425229e-02 -8.71109217e-03
  -2.59051435e-02 -4.80636619e-02  2.47641802e-02 -3.96760032e-02
   8.00895914e-02 -5.22948802e-04 -9.76447016e-03 -4.98497672e-02
   7.60134310e-03  1.27738789e-02 -8.04013386e-02  3.81630734e-02
  -7.64712170e-02  3.79304737e-02 -4.52425703e-02  2.40072459e-02
   2.67486423e-02 -6.66659623e-02 -6.65011257e-02 -6.68158978e-02
  -3.58795673e-02 -7.94709399e-02 -7.51331225e-02  3.74441519e-02
  -3.91201414e-02 -7.31025413e-02  3.30798328e-04 -6.26363605e-03
  -1.46962777e-02  1.26308277e-02  1.44106895e-03  2.73226947e-03
  -7.03543425e-04 -5.03419265e-02 -2.14327723e-02 -7.77225643e-02]
 [ 7.89507404e-02 -6.17509820e-02 -2.91585587e-02  1.49937794e-02
  -3.33529972e-02  2.98160240e-02  6.39167354e-02 -7.04123378e-02
  -2.74375081e-02  7.57597461e-02 -3.75700630e-02 -4.83427718e-02
  -6.04940504e-02  3.44054103e-02 -8.07424113e-02  6.57751784e-02
  -6.04904927e-02 -7.70827308e-02  3.44960392e-03 -4.37232852e-03
   3.26503813e-02  2.94909105e-02 -1.91223882e-02 -6.94378391e-02
  -6.84012845e-02  7.24809095e-02  5.38548455e-02  1.80895105e-02
  -5.85183725e-02  4.55763564e-02 -1.15266517e-02  2.47592106e-02
  -3.80852930e-02  2.19589323e-02 -5.19962236e-02 -6.59480691e-02
   3.18718031e-02 -3.71926948e-02 -6.58090487e-02  7.82123953e-03
   7.06829205e-02 -3.32897045e-02  6.95727393e-02  1.05488524e-02
   1.92840919e-02  4.00077328e-02 -4.89982627e-02  6.49906173e-02
  -2.78422013e-02 -4.32862341e-03  3.91186178e-02  2.39283219e-02
   4.24148664e-02 -6.52008355e-02  3.88338044e-02  1.69941857e-02
  -8.02029669e-02 -4.20614220e-02 -5.59172742e-02  4.86324802e-02
  -7.02547282e-02  1.90758407e-02 -4.12943102e-02 -2.79526822e-02
  -4.16415855e-02 -5.13683259e-02  2.79007927e-02 -6.27196357e-02
  -7.65009597e-02  1.58247054e-02  6.37278184e-02 -7.35938549e-04
   5.84053472e-02  4.10165563e-02  4.73379865e-02  5.24122193e-02
  -1.52081400e-02  7.57521763e-02 -8.74833763e-03  6.99833706e-02
  -7.61174262e-02 -1.28092840e-02 -5.75662404e-03 -4.06430922e-02
  -3.45268138e-02 -6.45089149e-02 -6.69707358e-02  3.72799486e-02
   7.95008168e-02 -7.10914731e-02  5.12223169e-02  6.25926182e-02
   6.45411238e-02  7.32836351e-02  1.14243701e-02 -7.44521245e-02
  -7.21732602e-02 -1.39220506e-02  6.46517649e-02 -3.30784731e-02
  -3.71167809e-03  5.25732413e-02 -6.72901422e-03 -4.75027561e-02
   3.01166773e-02 -6.56202435e-02 -4.76683490e-02  2.73264498e-02
  -2.13844292e-02 -5.24106622e-03 -4.26138006e-02 -6.62110299e-02
  -2.57245451e-03  4.46610674e-02 -2.32954770e-02 -3.27082016e-02
  -1.82286873e-02  7.86363408e-02  6.61094114e-02 -4.62962203e-02
  -4.24077362e-03 -9.31692123e-03 -7.39644915e-02 -9.77628678e-03
  -1.87964998e-02 -2.20112018e-02 -5.59895784e-02 -5.08808047e-02]
 [ 5.16307876e-02 -7.49722868e-02  3.97222638e-02 -7.74288327e-02
  -3.66713852e-03 -6.15894869e-02  8.03262368e-02 -9.43800062e-03
   4.89198640e-02 -4.79414240e-02  6.89951703e-02 -5.28426766e-02
  -6.82473183e-02 -7.28220791e-02 -6.53858855e-02  7.63877705e-02
  -5.92068359e-02 -5.82339466e-02  7.61472955e-02 -6.06459305e-02
  -2.65461691e-02  5.11283502e-02 -4.06020880e-03 -3.53723429e-02
  -6.81468099e-03  3.89696136e-02 -1.64665058e-02  1.91054642e-02
   2.62803063e-02 -6.30409271e-03 -2.17776895e-02  7.15931877e-02
  -5.59422374e-02  4.57673594e-02 -5.99127412e-02 -6.77005798e-02
   2.54213959e-02 -7.44871870e-02 -6.09678552e-02 -4.56461310e-03
  -1.40860975e-02  3.45601141e-02 -7.64458627e-03 -6.58540055e-02
  -1.32733807e-02 -3.69955786e-02 -2.19243541e-02 -6.42383918e-02
   7.85143152e-02  5.67518920e-03 -5.38351387e-02 -3.46858501e-02
  -1.74816474e-02  4.90231812e-03 -3.96970622e-02  8.07944313e-02
  -7.36313537e-02 -2.20988691e-03  4.26019877e-02  7.76807740e-02
  -4.16285731e-02 -2.52191722e-02 -3.05320807e-02  1.69473141e-03
  -5.41908853e-02 -2.64275260e-02  6.44064173e-02  6.41837642e-02
  -7.60043934e-02  4.29914370e-02 -2.78480016e-02 -4.90820371e-02
   3.12273204e-03 -3.24541144e-02 -2.85059214e-05  1.31300837e-02
   1.47971064e-02 -7.57276267e-03  6.42877147e-02 -3.10227908e-02
   6.79489300e-02  7.83228949e-02  5.15252724e-02 -6.68920726e-02
  -5.90366386e-02  4.08421606e-02 -3.75361443e-02 -4.95827831e-02
   4.30928916e-03 -4.72991802e-02 -6.83803633e-02  6.04887530e-02
   6.71107993e-02 -4.10500094e-02 -6.94757402e-02 -5.69049977e-02
   6.85792044e-02  3.51225883e-02  5.72243333e-03  6.01399466e-02
  -7.48577714e-03 -5.79212047e-02 -5.99962622e-02 -1.05215982e-02
  -7.27067664e-02  6.20849207e-02  6.28951266e-02  7.45279863e-02
   4.83844057e-02 -2.50403509e-02  7.45271221e-02  3.30489799e-02
   4.01602909e-02 -3.38391215e-03  6.51523694e-02 -3.02642658e-02
  -1.63304806e-02  1.27629116e-02  2.40413770e-02 -2.76779048e-02
   7.68321529e-02  1.10746920e-03  4.70954552e-02  6.54160753e-02
   4.17076051e-02 -7.45690465e-02  7.49525055e-02 -5.67832217e-02]
 [ 1.49710923e-02  5.96084073e-02  1.37285516e-02  3.83949950e-02
  -4.94159684e-02 -2.45137140e-02  1.43522769e-03  4.69585136e-02
   6.45075738e-03  4.38062027e-02  9.21344012e-03 -1.65691301e-02
  -5.10086529e-02  7.82981291e-02 -5.23023307e-04 -1.17049515e-02
   2.86800712e-02  7.50376955e-02  2.07593367e-02  7.94361457e-02
   6.77477047e-02 -3.21229845e-02  7.83220604e-02 -7.12064803e-02
  -4.16841097e-02 -4.78257239e-03  1.16246566e-02 -5.11842258e-02
   1.53850317e-02  6.38810024e-02  6.00438341e-02  5.38585410e-02
  -2.10759826e-02 -7.15716630e-02  3.26233432e-02  3.27897146e-02
  -1.93530172e-02 -4.15018946e-03 -5.97408041e-02 -1.73843354e-02
  -4.48809452e-02 -2.83775255e-02 -3.92688364e-02  4.16410863e-02
   6.04150668e-02  5.28504923e-02 -1.16482303e-02 -7.39202425e-02
   2.06006244e-02 -1.67040974e-02  6.65357709e-03 -7.62147903e-02
  -2.27402151e-02 -4.98527251e-02 -4.81204018e-02  8.69670510e-03
   1.08292326e-02  4.34061885e-03 -5.30031100e-02 -2.75244340e-02
  -4.54462431e-02  3.31393704e-02  2.79659852e-02 -1.99786685e-02
   1.06349066e-02 -4.95545305e-02 -3.83669920e-02 -4.27264646e-02
   6.06487170e-02 -5.04817031e-02  6.05590269e-02  2.10310742e-02
   1.82425529e-02 -4.04718332e-02 -5.39021939e-03 -1.18176714e-02
   6.77892044e-02 -7.64355808e-02 -6.52045533e-02  1.35371611e-02
   7.65459165e-02 -5.53163737e-02  7.11578205e-02 -2.40080543e-02
   7.70397484e-04  7.57347792e-03 -7.21424967e-02 -2.11554989e-02
   4.19134423e-02 -8.42070580e-03  3.12041864e-02  2.08796188e-02
  -2.90838741e-02 -3.01741473e-02 -5.00660464e-02 -4.97484356e-02
  -8.36753100e-03  1.30291209e-02 -4.08133864e-02 -7.55084455e-02
  -6.43645898e-02  6.66624978e-02 -5.56733236e-02  6.19744137e-02
  -3.98414619e-02  2.27362663e-03 -1.91862881e-03  5.91596961e-03
  -3.14329192e-02  6.85434267e-02 -5.10840937e-02 -4.55124378e-02
  -4.90630828e-02 -3.76220830e-02 -3.80484760e-03 -7.01886117e-02
   4.08312529e-02 -2.24695764e-02 -7.28775263e-02  6.54420629e-02
  -6.97720051e-02  2.91455537e-03 -3.42162997e-02 -9.55685228e-03
  -6.97301775e-02  3.30183506e-02  1.72852129e-02 -3.02865058e-02]
 [ 7.83730820e-02 -3.12416814e-02  4.53237444e-03  2.98185199e-02
  -2.20908746e-02  1.48325115e-02 -3.72661613e-02 -2.37843506e-02
   4.26170677e-02  6.60341606e-02  4.74421158e-02  5.35314754e-02
  -6.78963959e-03  3.96668166e-02  2.70811245e-02  5.35649285e-02
  -6.77963644e-02  3.86120379e-03  1.09254047e-02  5.75826094e-02
   7.85413608e-02 -6.80071861e-03  3.87748182e-02  5.26065007e-02
  -3.26704122e-02  4.21492010e-02  5.82138374e-02  7.85784796e-02
  -6.02585487e-02 -2.92955898e-02 -4.20843773e-02  6.39183074e-03
  -3.34594361e-02 -1.39690191e-02 -2.23932080e-02  5.98751530e-02
  -4.35080044e-02 -4.45812792e-02 -1.28807202e-02 -6.37333319e-02
   4.82173786e-02 -3.49562578e-02  5.34883216e-02  6.48183301e-02
  -5.80437332e-02 -4.17044945e-02 -5.67892790e-02  3.13249677e-02
  -1.88440718e-02  5.04890159e-02 -6.59817979e-02 -3.30518037e-02
   1.69495940e-02 -4.63388413e-02  2.24186778e-02  3.26607451e-02
   2.61385515e-02 -6.47959113e-02  7.16806427e-02 -5.52448258e-02
   4.44325134e-02 -1.23741925e-02  9.71401483e-03  1.15411133e-02
  -7.42756799e-02 -4.49932441e-02  2.60659382e-02  5.99199161e-02
  -1.07418224e-02  8.07971731e-02 -4.46293503e-03  2.98247039e-02
   7.82454684e-02  5.91650084e-02 -3.63984704e-02 -1.92560330e-02
  -3.09063531e-02  5.44962212e-02  2.28865668e-02  4.52509448e-02
   6.11240491e-02 -5.00374250e-02  3.32830101e-02  7.13122562e-02
   7.64347389e-02  8.03804025e-02 -1.56990439e-02 -2.40772292e-02
  -7.76626319e-02 -1.07008219e-03  2.13024691e-02 -3.05478610e-02
  -8.03672671e-02 -3.72576714e-02 -5.47969118e-02 -3.84481996e-03
  -3.76648009e-02 -9.94267315e-03 -2.77582519e-02  4.02749702e-02
   8.63062590e-03  1.49071217e-02 -5.22352234e-02  1.95717290e-02
  -6.42354116e-02 -7.24408478e-02 -4.87886742e-02  3.62030566e-02
   5.65567091e-02 -6.55689985e-02  7.66705051e-02 -1.54106915e-02
   3.98292392e-02  9.58493352e-03 -8.07309598e-02  2.58778781e-02
  -7.59483129e-02 -8.10183659e-02  9.79438424e-03 -6.15872815e-02
  -1.05869099e-02 -6.38471171e-02 -4.64676134e-02  7.75896683e-02
   4.65723500e-02 -1.73187852e-02  1.81872100e-02 -6.08288348e-02]
 [ 6.63062111e-02  1.07828230e-02  1.50133893e-02 -4.54700477e-02
   1.00220963e-02 -2.91245803e-02 -7.35851154e-02 -2.23707370e-02
  -5.97593933e-03 -3.38486582e-02 -6.89261854e-02  5.92138395e-02
   5.10572121e-02 -1.40827671e-02 -1.43928230e-02  1.06167272e-02
   3.45057324e-02  8.83000344e-03 -4.76416051e-02 -6.75540790e-02
  -7.11037219e-02 -4.19063680e-02 -8.26636702e-03  2.66529322e-02
   4.37261984e-02  2.09206343e-02  5.11568263e-02 -6.71619549e-02
   5.18949851e-02  4.31891903e-02 -5.60204238e-02 -6.95791841e-02
  -6.80230856e-02 -8.64654779e-04  1.15520433e-02  5.72906956e-02
   7.42734745e-02 -6.35721460e-02  6.13555685e-02  7.64329657e-02
   2.97740400e-02  5.54896072e-02 -5.58192879e-02 -1.51358396e-02
  -3.08476612e-02 -5.53544909e-02  6.28090650e-03  4.76941466e-04
  -2.75760293e-02 -3.48199829e-02 -4.29163091e-02  2.01285630e-02
  -1.02825835e-02 -5.93189001e-02  3.61632556e-02  4.79380861e-02
  -2.39376649e-02 -7.12887496e-02  7.53084645e-02 -2.54605934e-02
  -1.99362002e-02  2.56949514e-02 -3.28120850e-02  2.60784477e-03
  -9.87411290e-03  5.55630401e-02  5.42564169e-02 -5.00569567e-02
  -3.10974158e-02 -3.36631052e-02  7.36478493e-02  4.20369804e-02
  -7.05610886e-02 -3.35168913e-02 -4.51658182e-02  3.48740518e-02
   4.81879711e-03 -7.47450069e-02  6.22551367e-02 -6.33766502e-03
  -2.00979076e-02 -1.65313035e-02  4.72086146e-02  2.98261940e-02
   3.06404755e-02 -2.40979791e-02 -4.94964570e-02 -2.29156539e-02
   7.91429654e-02  1.52011812e-02  5.33538833e-02  3.40860710e-02
   6.24326542e-02 -9.99614596e-04  5.13143316e-02  4.54329029e-02
   7.29089156e-02  6.01784810e-02  6.75031021e-02  5.60561493e-02
   5.63334674e-03 -7.13043734e-02 -5.10463119e-03  3.40321362e-02
   4.76338491e-02  2.47241929e-02  5.32757416e-02 -4.15132977e-02
  -5.65764606e-02 -3.09517235e-02  8.72425735e-04 -5.99361025e-02
   6.68318942e-02 -2.16682367e-02 -1.22729167e-02  1.61634907e-02
   2.61191428e-02 -4.70501594e-02  8.32527131e-03  1.32170320e-02
  -6.47756830e-02  3.21301222e-02  6.05667010e-02  4.90174070e-02
  -3.02494727e-02  4.51098159e-02 -7.30071515e-02 -3.21126580e-02]
 [-4.94318455e-02 -1.77941471e-03 -6.65992498e-02  2.84675658e-02
  -4.93770987e-02  5.69839403e-02 -7.94451758e-02 -1.98519640e-02
   5.42123541e-02  7.40217492e-02  5.64344451e-02  4.22974080e-02
  -1.79218873e-02  1.83640718e-02  8.07953253e-02 -5.99711835e-02
   5.30200824e-02 -7.34829307e-02  7.89066330e-02  3.96197066e-02
  -6.63942620e-02 -2.50607915e-02 -5.60005233e-02 -2.13886835e-02
  -1.17085055e-02  4.86065224e-02 -6.89136982e-02 -4.38339710e-02
  -7.14513212e-02  2.40008831e-02 -3.77712399e-02 -7.27779865e-02
  -5.20643666e-02  3.45516801e-02 -7.63766170e-02 -2.96515711e-02
   5.08415774e-02  2.76819840e-02 -3.29560004e-02  7.08226785e-02
   2.59730369e-02  2.41993368e-03 -3.02981846e-02  1.73928589e-03
   1.31904259e-02  5.42241856e-02  5.53169847e-03  2.14413181e-02
   2.79313102e-02 -1.24455243e-03 -9.15338099e-03 -7.19795898e-02
   6.96178600e-02  3.45737860e-02 -5.95593154e-02  1.65333971e-02
   8.10792819e-02 -7.39399493e-02 -6.22139424e-02  3.38791162e-02
   7.14586601e-02  4.17445824e-02  7.45157525e-02  4.11942154e-02
   7.59408846e-02 -2.99869478e-03  4.26003039e-02  2.76913419e-02
   7.91487470e-02 -2.61664391e-02 -5.08224070e-02  3.03600505e-02
  -7.91452825e-03 -3.60164046e-03  5.57404682e-02 -6.22123741e-02
   3.77010182e-02  3.61502022e-02  7.63290599e-02 -6.13650680e-03
  -5.74753992e-02 -3.05644907e-02 -5.74194342e-02  5.23704514e-02
  -3.12546380e-02 -1.54978484e-02 -5.87051809e-02  3.80766690e-02
  -2.06255354e-02 -2.90590450e-02 -5.74583039e-02 -7.07874447e-03
  -7.59082064e-02  6.76782355e-02 -4.58451137e-02 -1.91552229e-02
  -4.24458869e-02  5.04632369e-02 -3.69789861e-02  4.53502014e-02
  -1.33952349e-02  4.20518070e-02 -1.32980421e-02  2.43653655e-02
  -6.29522949e-02  2.17250735e-02 -5.25045469e-02  8.45625252e-03
  -3.14347148e-02 -1.75872371e-02 -5.35935909e-03 -5.84142655e-03
  -6.85358047e-02  3.12236398e-02  6.34787232e-03 -1.92797035e-02
  -4.18252237e-02  6.32626638e-02 -6.26613945e-02 -2.35646069e-02
  -1.25705525e-02 -4.23877537e-02  1.90785900e-02 -2.06617154e-02
  -4.32332605e-03  2.84705013e-02  7.14443102e-02 -4.41611148e-02]
 [-5.08869737e-02  6.16421625e-02  5.13429418e-02 -3.22788134e-02
  -5.94546720e-02 -1.33612156e-02  3.34313363e-02 -2.69099809e-02
   6.13648370e-02 -1.82840899e-02 -8.73391330e-03  1.30683780e-02
   1.76077560e-02 -5.93484119e-02 -4.74750996e-05 -3.76677215e-02
   6.45309016e-02 -3.90465818e-02 -4.30440977e-02 -7.00534731e-02
   7.10767433e-02 -1.41367018e-02 -2.45392956e-02  6.46103844e-02
   5.19940183e-02  4.20849770e-03  4.91242856e-03  2.45155916e-02
   6.63943589e-04 -7.43598044e-02  2.06234828e-02 -2.09068283e-02
   1.32610649e-03  3.41497958e-02  8.03362504e-02 -5.29789738e-02
  -5.16749173e-02 -7.94747099e-02  1.91855058e-02  1.12605095e-03
   7.60691240e-02  5.63609526e-02 -2.75087133e-02  2.55782306e-02
  -1.83097273e-03 -3.18677388e-02 -4.60572541e-03  5.80093265e-03
  -3.81361321e-02 -6.08423501e-02  3.37390676e-02  5.55525944e-02
  -6.18652925e-02 -4.57234569e-02  4.71927449e-02 -4.35763635e-02
   4.47063521e-02  7.12909475e-02  7.83467814e-02  9.81457531e-04
   6.14380613e-02  2.42858306e-02  1.04881451e-02  3.78967822e-02
   4.21157405e-02 -1.03195906e-02  1.53644159e-02 -7.78970122e-03
   4.00639325e-02 -5.11131585e-02 -5.82861751e-02 -2.24125274e-02
   6.77053854e-02 -6.80998638e-02 -7.93502629e-02  1.48849785e-02
   7.05517828e-04 -2.35733092e-02 -1.16182938e-02 -7.91261345e-02
  -4.67083380e-02  4.95605916e-03 -6.83954880e-02 -9.94583964e-03
   4.88755628e-02 -6.92653209e-02 -1.65634081e-02 -5.63704893e-02
  -8.07467625e-02  5.21891937e-02 -6.47508949e-02  7.30617866e-02
   4.47873250e-02  3.88361216e-02 -7.85391033e-02 -2.75559574e-02
   4.14732844e-03 -9.18745995e-04 -3.04301120e-02 -4.78101186e-02
  -2.66942382e-03  7.23215714e-02 -6.42327443e-02  7.96775147e-02
   7.26298764e-02  4.83013168e-02 -4.99277189e-02 -4.40684669e-02
   6.01704493e-02 -5.76046556e-02 -4.94022593e-02 -1.11716986e-02
  -2.70399526e-02 -3.92013825e-02  3.95827740e-02 -1.65060312e-02
  -1.75450817e-02  3.47417593e-02 -7.63537958e-02  3.00922543e-02
  -3.26404199e-02  1.56072453e-02  6.03063330e-02  7.56121948e-02
  -4.12220210e-02 -1.25159621e-02  1.07748955e-02 -4.02489975e-02]
 [ 5.42140380e-02  7.61911273e-03 -1.43889710e-02 -4.91316766e-02
   1.24730170e-03 -2.72322334e-02 -1.89031102e-02  6.49306253e-02
  -6.99343905e-02  6.24276474e-02 -2.64302716e-02  6.93556666e-03
   4.01638299e-02 -2.92053781e-02 -4.45768312e-02  2.78125927e-02
  -2.08341964e-02  6.65350631e-02  5.51703945e-02  7.21740350e-02
  -3.96154150e-02 -4.13340889e-02 -1.01297721e-02  2.61056423e-02
  -6.91355020e-02  6.46544993e-03 -4.36385162e-02 -1.67937502e-02
   4.24472392e-02  5.59899732e-02  2.32379809e-02  8.10779631e-04
  -7.04075992e-02 -5.82761802e-02  7.21955970e-02 -3.56391147e-02
   1.96981654e-02 -1.17780864e-02 -4.77085523e-02 -6.15058839e-03
   5.63929975e-03 -1.63333118e-03 -3.37811671e-02 -7.67763704e-03
  -7.59257227e-02  6.33987412e-02  5.95277324e-02 -2.93461606e-02
   3.63758430e-02 -1.16198808e-02  2.35959738e-02  4.12137881e-02
  -3.27415988e-02  2.05194950e-03 -5.26859611e-02 -6.81703687e-02
  -2.09060572e-02 -5.54585308e-02 -4.94226813e-04  2.02127397e-02
   3.51603925e-02 -5.20291179e-03  6.21061996e-02 -6.30564913e-02
   1.20602176e-02  3.28241512e-02 -5.92536554e-02 -5.93384504e-02
   2.56550983e-02 -2.68051475e-02 -2.40135081e-02 -5.49465865e-02
  -1.47834346e-02  2.03856006e-02  1.36761069e-02  4.43468019e-02
   5.28253689e-02  7.86040947e-02 -7.83413872e-02  4.18307558e-02
  -1.43594444e-02  3.92956361e-02 -5.03593087e-02  5.29978797e-02
  -2.82959640e-03 -7.98020288e-02  2.24544182e-02  8.04321840e-02
   5.34891412e-02  7.04095140e-02 -6.93202242e-02  3.58460546e-02
   3.58747318e-02  2.24796906e-02 -1.82996616e-02 -2.05427408e-04
   6.56287745e-02  7.75043443e-02  7.47048631e-02  1.50092468e-02
  -4.85959649e-03 -3.45394015e-02 -7.78267011e-02  5.36815152e-02
   7.50891641e-02 -7.15378225e-02 -5.42436019e-02  7.73516372e-02
  -6.33551925e-03  2.22903863e-02 -1.37614459e-02 -4.52465564e-02
  -1.81117132e-02 -5.72859235e-02  4.56896201e-02 -7.23873004e-02
   3.15208510e-02  4.14532870e-02  2.96600014e-02  7.41070881e-02
   2.64651626e-02  3.24288011e-03  2.49698460e-02 -6.99222833e-03
  -1.95847861e-02 -2.66678631e-04  6.41409084e-02 -2.55570896e-02]
 [ 1.13775730e-02  1.97189748e-02 -4.46595252e-04  7.39989951e-02
   7.64451697e-02 -4.50604632e-02  2.77528986e-02 -3.88045795e-02
   2.03291327e-02  2.35885382e-04  2.51194835e-03 -3.07904594e-02
  -5.98290563e-03 -6.35278821e-02  4.30040061e-02 -6.34981170e-02
   2.55582482e-02  4.18329984e-02  6.35962412e-02  4.43073288e-02
   3.72691602e-02 -2.07399800e-02  3.83567214e-02  3.98190841e-02
   3.02889571e-02  3.07609141e-02  5.86568192e-02  3.51441726e-02
  -7.30941296e-02 -6.23423457e-02 -7.42291734e-02 -4.31395695e-02
  -4.39067595e-02  5.53641990e-02 -6.56206161e-02 -5.70462048e-02
  -1.64897293e-02 -6.83748722e-02 -4.01803255e-02 -1.18928254e-02
  -7.85699040e-02 -4.50997949e-02 -2.59146169e-02 -4.93467562e-02
   2.52353027e-02  8.73412192e-03 -1.65209398e-02 -7.47547895e-02
   5.39351925e-02 -8.75336677e-03 -4.47672568e-02  5.59354648e-02
  -6.05177805e-02 -1.15872547e-02 -2.38003433e-02  4.58224490e-02
   1.02878585e-02  1.54997408e-02 -3.93463448e-02 -3.61329950e-02
  -7.08589107e-02  6.07706532e-02 -7.64423236e-02  6.30864725e-02
  -6.70656860e-02 -6.18080683e-02  1.11262500e-02  3.25583667e-03
   6.79766610e-02  1.86912417e-02 -6.86950982e-04  7.55043849e-02
  -2.01629438e-02  8.76055658e-03  1.31040215e-02 -5.82726598e-02
   5.74863628e-02  7.96507224e-02 -7.46199787e-02 -7.40248859e-02
  -4.27289195e-02 -2.44935229e-02  2.27785632e-02  1.39590800e-02
   1.34092346e-02  6.27685264e-02  6.22455403e-02 -1.99788027e-02
   6.11792132e-02  2.16571391e-02  5.48641905e-02 -3.21700163e-02
   2.49507204e-02  5.02498224e-02 -1.56160668e-02  6.40969947e-02
   5.56861088e-02 -4.39090021e-02 -2.20069475e-02 -3.80469635e-02
   8.01431388e-03 -1.70059502e-04 -4.64418940e-02  6.18571416e-02
  -6.90331832e-02  6.25800565e-02 -3.87944281e-02  6.10565171e-02
  -1.66476443e-02  1.97219923e-02 -3.77695560e-02 -1.43318251e-02
  -5.65348044e-02  1.36307776e-02 -1.90305114e-02  4.14612740e-02
   7.58345649e-02  6.30623177e-02 -7.77775943e-02  6.68386444e-02
   1.55074224e-02 -4.73606959e-02 -1.30378604e-02 -4.65616174e-02
   4.39744219e-02 -5.09750992e-02 -7.62201846e-03 -3.02954577e-02]
 [-1.21584907e-02  7.10995272e-02  8.07088539e-02 -2.35622674e-02
   3.76727134e-02  5.02936617e-02 -1.62297860e-02  3.25807258e-02
   1.80476978e-02  2.91285813e-02 -1.17598921e-02  5.82823828e-02
  -6.42365739e-02  4.36969772e-02 -6.09668121e-02 -6.25415146e-02
  -4.55321223e-02 -7.80213028e-02  6.62956908e-02  4.57913429e-03
   1.41746849e-02  6.44697770e-02  5.63351288e-02  1.51361451e-02
   4.56509367e-02 -4.53172363e-02 -3.88203785e-02  6.68558106e-02
   1.38069466e-02  1.81129649e-02  3.72277126e-02 -4.37259451e-02
  -2.69818790e-02 -1.35461912e-02 -6.31077141e-02  7.79322460e-02
   5.42776361e-02 -5.69793358e-02  1.23856813e-02 -3.87624986e-02
   5.95704466e-03 -1.48321316e-02 -5.56096025e-02  5.69489077e-02
   4.65423539e-02  5.23371324e-02  3.64015847e-02 -7.04325065e-02
  -2.57723257e-02  1.34828016e-02 -8.03598985e-02  1.32425949e-02
  -6.59189820e-02  4.79384512e-03 -1.55236050e-02 -5.58125190e-02
   6.63832948e-02  7.75550082e-02  2.00728253e-02 -5.34916334e-02
  -2.65053064e-02 -6.84047267e-02 -3.20894904e-02  8.15021992e-03
   2.10461840e-02  3.54248807e-02 -5.78378364e-02  2.62708664e-02
  -7.92196542e-02  1.06347352e-03 -7.50010610e-02  1.01122260e-03
  -2.10042559e-02 -5.98450005e-02  1.52478591e-02  5.37923649e-02
   4.43345234e-02  4.04665545e-02  5.47721013e-02 -4.47764210e-02
   7.71232322e-02 -4.55311388e-02  2.23450959e-02  3.21657807e-02
   5.15313819e-02  4.38119397e-02  7.85765052e-03  3.49616334e-02
  -4.36847545e-02  5.63287362e-02 -5.27288541e-02  4.11339104e-03
   1.77366436e-02 -5.54537028e-03  3.98874283e-02  2.83300653e-02
   1.60989389e-02 -3.38255875e-02 -7.71207362e-02  3.63372266e-03
  -7.82511756e-02 -7.96262994e-02  3.77649367e-02  2.24714354e-02
  -3.39148156e-02  2.00556368e-02 -7.72721544e-02 -3.29149663e-02
   1.73857883e-02 -7.30542764e-02  7.68759102e-03  4.43102196e-02
  -1.23117119e-03 -7.05523640e-02  4.38087508e-02  6.25130609e-02
   6.24967366e-03 -7.23477155e-02  1.88197792e-02  1.13101974e-02
  -2.45393068e-03  2.83436999e-02 -4.24756072e-02 -3.12213935e-02
  -7.82106817e-03  4.34262231e-02 -3.10603827e-02  1.83978379e-02]
 [-6.77704737e-02  1.82121545e-02 -2.77535729e-02  5.23255765e-03
  -5.73214144e-03 -1.25761628e-02 -5.32603264e-02 -5.62986061e-02
   2.24031880e-02 -6.37752414e-02  1.83111876e-02  7.30506256e-02
   1.55331418e-02  4.96263057e-03  6.44291565e-02 -1.06831565e-02
   6.78368285e-02 -4.41723317e-02  7.89117888e-02  7.56418779e-02
  -7.51560181e-02  5.69374636e-02  6.39030412e-02  6.99860677e-02
  -3.32876332e-02  4.26476225e-02  6.11062869e-02 -5.58918417e-02
   6.23100996e-03 -2.85903215e-02 -5.57873398e-02  2.74696499e-02
  -7.20689297e-02  7.05377683e-02  5.84545210e-02 -4.15223651e-02
  -1.60789639e-02 -3.10308561e-02 -5.72777838e-02  4.57571819e-02
  -7.40956515e-03 -3.74474972e-02  4.00703102e-02 -7.17316493e-02
  -4.57101911e-02  2.11380795e-02 -4.10977341e-02 -2.63602696e-02
  -4.93492521e-02  2.38504112e-02 -7.66748488e-02 -8.10216591e-02
  -4.38177064e-02  6.32926822e-03 -3.77763249e-02  4.12840769e-02
  -6.46638721e-02 -1.56786814e-02  6.52488694e-02  6.88505992e-02
  -5.53297997e-03  2.24388093e-02  5.73481694e-02  6.62453398e-02
  -5.83502650e-02  1.83940306e-02 -2.68720947e-02  3.47205624e-02
  -7.44106621e-03 -3.28707956e-02  6.95527866e-02 -3.84009890e-02
  -6.68205917e-02  7.87211135e-02  6.71061650e-02 -1.21055022e-02
   6.34866282e-02 -4.79305945e-02 -7.64084831e-02  1.55087784e-02
   3.26471031e-03  7.55903646e-02 -1.15318745e-02  4.71388921e-02
  -4.99650240e-02 -4.06714603e-02  3.48897353e-02  7.76724145e-02
   4.96228263e-02  1.48171782e-02 -7.75418282e-02  7.71301761e-02
  -2.30343528e-02 -1.51208267e-02  4.13808897e-02 -1.52734444e-02
   4.06363606e-02  7.93216303e-02 -4.70945239e-02 -6.42814934e-02
  -5.04545867e-03 -5.52467182e-02 -9.55840200e-03 -3.52010056e-02
  -4.50902060e-02 -2.34479606e-02  8.02546367e-02 -4.75182459e-02
   5.17567173e-02 -6.03439063e-02  4.24822420e-02 -1.87496804e-02
   3.64656523e-02  6.20407537e-02 -5.54042310e-03 -9.63877141e-03
  -1.43994316e-02 -7.72288144e-02  4.04470414e-02 -6.52117059e-02
  -5.81204295e-02  4.47859615e-03  3.23178992e-02  3.87953222e-03
  -5.79187125e-02 -5.09580076e-02  1.45548135e-02  6.86987266e-02]
 [ 2.34973282e-02 -3.68679464e-02  5.20303473e-02 -2.31399015e-02
  -2.77689286e-02  2.52318606e-02  4.42935303e-02 -4.96188290e-02
  -5.92670143e-02  2.62102261e-02 -3.40877771e-02 -4.22031432e-03
  -3.42607945e-02  3.39522734e-02 -7.21755028e-02 -7.55891204e-02
   6.31046966e-02  5.03449216e-02  1.63764507e-03  2.01582238e-02
   6.43067285e-02  7.78918639e-02  5.69852963e-02  1.75654069e-02
  -2.56041810e-02 -6.20624423e-02  5.63047826e-03  3.85160744e-03
   1.53374597e-02  5.73801175e-02 -3.30191590e-02  5.49997166e-02
  -2.41289176e-02  4.84272614e-02 -8.29317421e-03  4.08506319e-02
   4.26780581e-02 -2.03331783e-02 -7.84268230e-02 -5.06360047e-02
  -5.56277484e-03 -4.26548757e-02  7.32252821e-02 -5.00248969e-02
   4.03973833e-02 -4.58781235e-02  3.63995954e-02  1.70255005e-02
  -3.84375602e-02  4.39288691e-02  3.03376541e-02 -4.40114550e-02
  -5.32967597e-03 -1.18234381e-02 -2.75245905e-02  3.28679755e-02
   1.04373246e-02  2.57070959e-02 -6.82056025e-02  7.14250654e-03
  -3.48398052e-02  5.48749343e-02 -1.96657367e-02 -5.88156581e-02
  -6.43068850e-02 -4.73811179e-02  5.85735068e-02 -6.30791783e-02
   1.83776915e-02  1.40810311e-02  3.35505605e-03  6.65167347e-02
   3.26163620e-02  2.79620960e-02 -1.15715712e-02  5.56651428e-02
  -4.79439981e-02 -2.11490206e-02  1.88240334e-02 -5.48842810e-02
   3.44763175e-02  3.44900861e-02 -6.77725375e-02 -6.99159577e-02
  -4.21132147e-03 -3.08442600e-02 -9.85345989e-03 -3.50199789e-02
  -1.21637881e-02  6.55318871e-02  6.18159249e-02  5.03645316e-02
  -7.02510029e-03 -4.82153706e-02  2.04202533e-03 -1.10523254e-02
   4.25950438e-02 -2.32331865e-02  7.12743774e-02 -7.83688873e-02
   2.55748630e-02 -1.18166879e-02 -7.36102685e-02  4.78087366e-03
  -3.83927524e-02 -2.09137313e-02 -2.04272568e-03  4.52762321e-02
   3.74400914e-02 -1.19320378e-02 -7.28839263e-02 -1.01734698e-02
   1.74161866e-02  6.35223910e-02  4.06521037e-02  3.32519412e-04
   6.17824271e-02 -1.12675801e-02 -5.33780605e-02 -1.41425431e-02
  -4.95330431e-02 -4.97257896e-02 -9.27876681e-03  6.27587810e-02
  -6.18262067e-02 -7.27887452e-02 -6.92919120e-02 -6.96700811e-03]
 [ 4.36724350e-02  6.07840680e-02  3.14620212e-02 -2.85965875e-02
   4.39591706e-02  6.86471611e-02  3.84837165e-02  6.13146313e-02
   2.79990360e-02 -5.61213903e-02 -2.34947950e-02  4.15468290e-02
  -2.38223113e-02 -6.66631758e-02  6.40982911e-02 -1.09044611e-02
   6.53040558e-02  9.51507036e-03  2.23617237e-02  2.85051987e-02
  -3.17632109e-02 -1.69192534e-02 -8.54009464e-02  7.15082213e-02
   4.59869169e-02 -1.35776363e-02  2.82491986e-02 -4.37415726e-02
  -1.28994808e-02 -5.22002205e-02  1.20127574e-02  2.21298411e-02
  -7.95275792e-02  5.87244704e-02  6.68000951e-02  6.81917816e-02
  -8.96467268e-03 -4.96867560e-02  6.30840957e-02 -3.82860042e-02
   2.13170778e-02 -2.58829948e-02  7.18597695e-02 -6.61201775e-02
  -2.30317973e-02  3.62043828e-03  4.42814715e-02 -6.39716536e-02
  -5.47961369e-02  5.70428371e-02 -3.94657962e-02 -2.24926472e-02
  -4.47268860e-04  6.52450323e-02 -2.76870206e-02 -1.54560804e-02
  -6.76658154e-02 -4.43056002e-02 -5.44516444e-02 -5.38503043e-02
   3.84067520e-02  7.44332373e-02  5.46676777e-02  5.79898581e-02
   4.50741723e-02  2.72631645e-04  1.91212669e-02 -5.86810261e-02
  -6.95367530e-02  8.91742576e-03  1.04934974e-02  2.97613032e-02
  -4.05532122e-03  2.51024384e-02  6.74102083e-02 -2.14931238e-02
   1.44451996e-02 -1.10660540e-02  7.44586997e-03  6.75235614e-02
  -7.31859282e-02 -2.30521808e-04 -5.78657836e-02  3.17898393e-02
  -4.10307432e-03 -6.17196336e-02 -7.41612166e-02 -5.03402241e-02
   5.15658632e-02  6.69297948e-02  7.36440048e-02  1.19079649e-02
   6.91387057e-03 -1.15064764e-03  5.69058508e-02  1.98910832e-02
   5.54078259e-02  5.62215894e-02 -5.45726679e-02  3.69143188e-02
   3.07580698e-02 -5.56970835e-02 -6.53344095e-02 -3.15344259e-02
   9.08136591e-02  3.07763498e-02  8.10894594e-02 -3.55094485e-02
   3.41826677e-02  7.31908083e-02 -6.30835071e-02  7.21515864e-02
  -6.11601882e-02  8.88340548e-03  2.62702350e-02  5.32265529e-02
   1.70304794e-02 -6.71435967e-02  5.73945120e-02  2.93015465e-02
  -8.25434085e-03  3.72867547e-02 -7.16677755e-02  4.16884273e-02
   9.42216348e-03 -3.74255218e-02  6.68604374e-02 -1.85308922e-02]
 [ 6.04743585e-02  7.33386874e-02 -5.19121960e-02 -5.48988432e-02
  -5.26014306e-02  5.67312613e-02  5.56828678e-02  4.38309200e-02
  -7.32082874e-02 -5.67907840e-03 -2.61779465e-02 -6.27306253e-02
  -6.29069656e-02 -1.19893784e-02 -2.64540818e-02  4.92677614e-02
  -3.06977611e-03  2.78347488e-02  1.84608083e-02 -3.02324146e-02
   4.20065559e-02  9.16895363e-03 -8.19339529e-02  4.89705009e-03
   6.17919266e-02 -5.36165237e-02  8.82837847e-02 -4.99824397e-02
  -7.84818232e-02  7.96865597e-02 -6.95091188e-02  3.89282368e-02
   9.78633314e-02 -5.27753830e-02 -1.60047412e-02 -4.19800840e-02
  -7.15280026e-02 -2.70893443e-02  2.53165439e-02  1.24824867e-02
  -3.05042490e-02  8.37626234e-02  4.89857346e-02 -1.82421654e-02
   2.70599648e-02  1.16213486e-02  3.68312076e-02 -7.03621730e-02
  -7.62182772e-02 -6.55227751e-02  6.40333518e-02 -2.81598568e-02
   4.83499989e-02 -1.01510938e-02 -8.50609764e-02 -7.93292001e-02
   3.00248973e-02 -1.87516902e-02 -4.99991514e-02 -6.73831999e-02
   1.78073645e-02  3.11054885e-02  9.93373096e-02  1.68854576e-02
  -7.87629187e-02 -9.33993608e-03  1.65124834e-02  3.36769372e-02
   1.36860907e-02 -1.13796040e-01  2.83430330e-02 -8.46442133e-02
   8.45360011e-03  8.36015269e-02 -3.89594249e-02 -4.87909690e-02
   3.99813689e-02  6.16177218e-03 -2.87175812e-02  7.34265968e-02
  -4.92488593e-02  4.03566658e-02 -4.97530065e-02  9.66036320e-02
   1.53547199e-03  3.03213149e-02 -2.24321317e-02 -1.23878643e-02
  -4.37449217e-02 -6.75164163e-03  3.75069343e-02  6.20170906e-02
  -1.39611140e-02 -8.58860090e-03  3.89543623e-02  3.38362604e-02
   1.06134161e-01 -6.48946911e-02  1.11434916e-02  4.39779833e-02
  -5.10411933e-02  5.46100587e-02 -5.13467230e-02  8.44767038e-03
   2.99747512e-02  5.42329364e-02 -5.11346832e-02 -2.59757638e-02
   1.93497799e-02 -6.65792823e-02 -1.29701970e-02  5.08061275e-02
  -1.82133038e-02  4.72540315e-03 -4.84573841e-02 -2.84462627e-02
  -3.73536721e-02  5.52921891e-02  3.23950616e-03  2.69293562e-02
  -2.59537976e-02  1.62231252e-02  4.07943837e-02 -2.22292989e-02
  -6.87669963e-02 -1.00938737e-01 -6.12238273e-02 -1.99413858e-02]
 [ 7.51489028e-02 -1.78982038e-02 -7.96359777e-03 -4.51413020e-02
   1.04510732e-01 -1.50905522e-02  2.00176954e-01  3.35346982e-02
  -7.20323473e-02  4.67260815e-02  6.76652510e-03  4.65109199e-03
  -2.09758561e-02  5.12207709e-02  5.86719029e-02  7.37503543e-02
   9.35544595e-02  6.92387223e-02  1.75702229e-01 -2.84431204e-02
  -1.76237956e-01  6.43982515e-02 -7.91574270e-02  6.59063905e-02
   1.43231079e-02 -1.85393378e-01  4.76890914e-02 -9.52912793e-02
  -3.29741649e-02 -7.58124292e-02 -9.36025940e-03  4.66523729e-02
   6.98995739e-02 -8.48365203e-02 -2.45870836e-02 -1.23453081e-01
  -2.54648104e-02  4.14144667e-03 -6.02373555e-02 -1.77482069e-02
  -8.36522579e-02  5.54836728e-02  1.39719799e-01 -6.67689741e-03
  -9.02492702e-02 -7.82898888e-02 -2.41532195e-02  5.46574146e-02
  -7.11143464e-02  2.73015201e-02  1.75244674e-01 -8.43735710e-02
   8.20718408e-02 -4.60392842e-03 -4.75138426e-02  9.16318968e-02
   1.20939001e-01 -1.75357491e-01 -1.11507690e-02 -7.61645436e-02
   5.32451319e-03  1.65645510e-01  9.32198316e-02  9.64341387e-02
  -8.73412192e-02 -5.54503910e-02 -1.45223498e-01  3.10594048e-02
   7.31445402e-02 -1.41977400e-01  3.78098041e-02 -1.08107120e-01
   7.38050863e-02  1.39472350e-01 -1.97252423e-01 -1.00760669e-01
  -5.72555847e-02  2.95005590e-02  5.58436401e-02  1.02630496e-01
   1.09705493e-01 -2.22157314e-02 -1.71198890e-01  1.00776546e-01
   2.09552720e-01  1.12076700e-02 -4.65784147e-02  2.03903299e-02
   6.28271177e-02 -1.46088406e-01 -1.95098162e-01 -2.11190358e-02
   7.45567307e-02  1.43547699e-01  5.63698150e-02 -4.86904345e-02
   1.03476301e-01  1.89108104e-02 -1.77104175e-02  1.98116228e-02
  -2.41045430e-02 -1.96857415e-02 -6.68866262e-02 -8.76699686e-02
  -2.68231705e-02  5.40607683e-02  1.71040148e-02  4.49706987e-02
  -8.85111541e-02 -1.44552156e-01  4.76234145e-02 -5.43154478e-02
   9.54530314e-02  1.85166016e-01 -9.46577415e-02  4.48808707e-02
  -1.02207936e-01 -1.19642027e-01 -7.20725767e-03  7.05064312e-02
   5.08946851e-02 -6.60514683e-02 -5.34797832e-02  3.50677893e-02
  -6.64876103e-02 -1.18383460e-01 -5.74960485e-02 -1.52337223e-01]
 [ 4.39545102e-02  1.45549392e-02 -3.98499034e-02 -2.54918598e-02
   1.32412300e-01 -1.35531053e-01  9.88378227e-02 -7.11948052e-02
  -2.67840996e-02 -4.25187424e-02  6.37557283e-02  3.76576260e-02
  -2.41073873e-02  7.10424036e-02  5.59493825e-02  4.54154387e-02
   6.36041388e-02  1.22323871e-01  1.19289547e-01  4.68102135e-02
  -8.38063583e-02 -1.53222645e-03 -1.44426912e-01  5.34335785e-02
   2.72231493e-02 -1.41572192e-01  1.09356746e-01 -1.49020866e-01
  -1.16514526e-01  5.07422863e-03  9.20116082e-02  4.22891937e-02
   7.40700439e-02 -3.15343402e-02 -5.64697497e-02 -1.43060490e-01
  -6.29519671e-02 -1.14208519e-01 -1.91338733e-01  9.28592384e-02
  -2.83297431e-02  1.14415608e-01  1.31512746e-01  6.06261119e-02
  -8.50723535e-02 -5.32524958e-02 -9.81963649e-02 -8.81015230e-03
  -5.44569120e-02 -3.77395749e-02  5.44958450e-02 -3.18434462e-02
   3.50926593e-02  4.79034036e-02 -9.30159241e-02  7.82204941e-02
   1.27760366e-01 -3.43481489e-02  3.61697190e-02 -4.97736149e-02
   4.63273004e-02  1.02160633e-01  1.69112876e-01  8.99389759e-02
   1.22086359e-02 -5.37539683e-02 -3.13661508e-02 -1.11355204e-02
   9.31688175e-02 -1.29190668e-01  6.09315597e-02 -7.57280961e-02
  -2.56332532e-02  1.87005267e-01 -1.83315739e-01  7.62274954e-03
  -6.24769367e-02 -4.04340774e-02  6.15107305e-02  1.07475065e-01
   7.41985962e-02 -3.96538824e-02 -1.62509501e-01  9.57175940e-02
   1.47606134e-01 -7.52432197e-02 -9.41362884e-03 -5.18452143e-04
   3.28045338e-02 -1.86092313e-02 -8.12504366e-02 -1.01700723e-01
   5.45328297e-02  1.94007605e-02  1.77220464e-01 -6.98850602e-02
   1.51075915e-01  8.46416950e-02  7.05248043e-02 -6.86462969e-02
  -6.04520775e-02 -4.29614820e-03 -6.76040649e-02 -1.05783612e-01
   1.17471656e-02  2.00095028e-01 -1.27737194e-01  9.62325409e-02
  -3.00946981e-02 -1.65521979e-01 -1.49352029e-02  6.23175465e-02
  -7.29185715e-03  1.88297823e-01  3.19612436e-02  8.02300125e-02
   6.12152414e-03 -4.99035791e-02 -1.31354004e-01 -7.48043135e-02
  -7.03298077e-02  3.16126912e-04 -1.31835520e-01  4.55012880e-02
   6.55405074e-02 -9.41253230e-02 -2.66050622e-02 -9.81939137e-02]
 [ 9.35698003e-02  1.08982220e-01 -7.08739758e-02  3.58758718e-02
   5.90777472e-02 -8.28507729e-03  1.85070008e-01  3.64481285e-02
  -3.97673473e-02 -2.60292497e-02  7.09117278e-02 -1.18347853e-02
   7.09723979e-02  4.81441505e-02  1.00388870e-01  4.91866507e-02
   5.02227619e-02  1.49278551e-01  1.31569266e-01  1.28773510e-01
  -1.51507229e-01  1.52138367e-01 -1.51571259e-01 -9.39768273e-04
   6.37636930e-02 -1.69111177e-01  1.71423987e-01 -1.50594786e-01
   2.33627819e-02  2.08679587e-02  5.14376983e-02  1.01968549e-01
   4.99713309e-02 -8.76285583e-02  3.63767110e-02 -6.99611828e-02
   3.03288549e-03  1.06004504e-02 -7.10821077e-02 -6.06233403e-02
   2.22013630e-02  1.26253888e-01  1.27472118e-01  6.59305528e-02
  -7.07915276e-02 -9.15719103e-03 -1.02981336e-01 -1.40632793e-01
   3.76887172e-02 -1.83291867e-01  1.42083898e-01 -4.32047583e-02
   8.70228037e-02  5.12969606e-02 -9.15576965e-02 -2.84012649e-02
   6.42640740e-02 -4.23501395e-02  8.40966925e-02 -1.15043372e-01
   2.15689670e-02  4.40172516e-02  4.75403555e-02 -1.62406024e-02
  -4.04345244e-03  7.81042352e-02 -1.24907456e-01 -5.18462770e-02
   1.43360168e-01 -1.45632088e-01 -7.61806127e-03 -1.30617395e-01
   5.71054146e-02  1.63929030e-01 -1.08030908e-01 -2.29765885e-02
  -1.71292484e-01  7.00650141e-02  1.39559619e-02  6.16724566e-02
   6.96329772e-02  1.14285268e-01 -8.33097920e-02  1.52405277e-01
   8.85733142e-02 -3.33297737e-02 -9.93607789e-02 -2.68070046e-02
  -2.22574621e-02 -1.02454267e-01 -4.69201319e-02 -1.45032750e-02
  -9.38047543e-02  1.34348109e-01  1.58788040e-01  5.25243357e-02
   1.57117277e-01  9.07983780e-02  4.46230173e-02  7.84858689e-02
   8.25671665e-03 -6.69557229e-02 -9.49009508e-02 -1.60620987e-01
  -6.62115738e-02  4.25396189e-02 -5.97819649e-02  1.07547157e-01
   1.60699878e-02  2.37420183e-02 -2.38843057e-02  9.43370461e-02
   1.24391608e-01  1.77509442e-01 -1.71184968e-02 -3.41137797e-02
   1.45621430e-02 -2.56254282e-02 -1.93250191e-03 -2.08145268e-02
   1.68039277e-02 -8.70600156e-03 -6.08011186e-02  6.26362190e-02
  -1.88208595e-02 -6.08063154e-02  2.16551702e-02 -3.07439041e-04]
 [ 1.26333144e-02 -6.56753108e-02 -1.20478938e-03  9.40674543e-03
   1.65346503e-01 -8.62067752e-03  2.98369050e-01 -1.16094708e-01
  -6.27307296e-02  6.14194665e-03 -4.63951305e-02  1.54141709e-02
   1.02991216e-01 -1.46994218e-02 -1.10505603e-03 -2.43440531e-02
   3.22431065e-02  2.59024464e-02  1.54049695e-01  2.00755335e-03
  -1.74313530e-01  1.11174345e-01 -7.64940828e-02  1.53615966e-01
   1.07920365e-02 -1.55778408e-01  1.25150174e-01 -1.31936774e-01
   3.82211767e-02  2.16577556e-02  2.08186544e-02 -2.01562978e-02
   1.69097073e-02 -1.98961765e-01  4.16334905e-02 -1.00259021e-01
  -4.76782545e-02  4.43970524e-02 -1.29869595e-01 -4.59974185e-02
  -5.50005846e-02  6.52462393e-02  1.86473221e-01  6.42301366e-02
  -1.33530304e-01 -4.59416471e-02 -7.16389865e-02 -1.09127752e-01
  -4.52198125e-02 -1.79549560e-01  8.13829154e-02 -1.03556097e-01
   1.95442826e-01  1.34989098e-02 -7.30993450e-02  5.44415563e-02
   4.96240295e-02 -8.75156000e-02  1.97479278e-02 -5.28105460e-02
   5.47447428e-03  1.52851626e-01  1.95974097e-01  1.05524696e-01
  -7.11499974e-02 -7.20508695e-02 -1.59519255e-01  8.89334232e-02
   1.92675754e-01 -1.69426858e-01  8.17008838e-02 -1.03537247e-01
  -1.50555924e-01  1.21521488e-01 -8.51143673e-02 -3.25324871e-02
  -9.71125886e-02  3.95757407e-02  1.18438199e-01  7.37370625e-02
   3.36488225e-02  3.82989943e-02 -5.74571677e-02  1.77091554e-01
   1.75247505e-01  1.25028864e-02 -1.38729244e-01  1.52322398e-02
   1.07977306e-02 -9.51520130e-02 -1.41752213e-01 -7.37339184e-02
  -4.86277081e-02  1.47475213e-01  1.94204658e-01 -2.31620036e-02
   1.58780113e-01  2.04501495e-01 -1.13432296e-01 -5.96521460e-02
   3.38912979e-02  2.64672618e-02 -1.29111990e-01 -7.63757527e-02
  -2.00425219e-02  1.80302724e-01 -1.08305074e-01  1.44491717e-01
   7.76631236e-02 -1.23867251e-01 -1.62966235e-03 -4.69978079e-02
   1.46947786e-01  1.35120049e-01 -4.22039405e-02 -3.89215946e-02
  -6.87941760e-02 -2.49860305e-02 -1.20503217e-01  1.76149309e-02
   9.24527049e-02 -2.97754444e-02 -3.23402621e-02  2.84697264e-02
   1.88677385e-02 -1.29666582e-01 -4.38090153e-02 -9.99114197e-03]
 [-9.18419752e-03 -6.53939471e-02 -5.57125024e-02  5.42335622e-02
   3.39203477e-02  5.43920472e-02  2.51212835e-01 -2.83572644e-01
  -5.63394763e-02  6.22752383e-02  8.04644898e-02  1.03712594e-02
  -1.47776660e-02  7.14273527e-02 -5.69693334e-02 -1.20388657e-01
  -2.79843789e-02  1.56696990e-01  9.37493667e-02  4.46522459e-02
  -1.84645399e-01  7.06038326e-02 -8.37453827e-03  1.04707763e-01
   1.49617046e-01 -8.98253322e-02  8.98249000e-02 -1.49244592e-01
  -7.97823370e-02 -9.99881793e-03  9.06589031e-02 -7.13340640e-02
   4.31542769e-02 -1.53070167e-01  1.22508639e-02 -7.55718052e-02
  -9.31968018e-02  1.39950305e-01  9.74055845e-03  2.01792084e-02
  -1.51676089e-01  4.07695532e-01  1.07694730e-01 -4.14948873e-02
   2.06263014e-03 -7.25980848e-02 -1.14432827e-01 -1.71291247e-01
   2.88135689e-02 -9.13229063e-02  6.57689525e-04 -8.67129490e-02
   2.62205333e-01  6.72360510e-02 -3.42864618e-02  8.92514512e-02
   1.56819582e-01 -3.85122895e-02  8.07552636e-02 -5.17049804e-02
  -3.75215709e-02  1.28712043e-01  1.19167693e-01  1.14087954e-01
  -2.57481076e-02 -9.00026485e-02 -1.88057110e-01  7.91451186e-02
   1.35528117e-01 -1.37878403e-01  5.37828580e-02  9.21286196e-02
  -2.01969311e-01  3.05488378e-01 -1.14828900e-01  6.47790451e-03
   2.53990060e-03  5.10639921e-02  9.37797129e-02  8.83421749e-02
   3.32521722e-02 -3.57080698e-02 -1.64378881e-01  1.97900742e-01
   2.07179710e-01 -9.36871171e-02 -1.39595658e-01 -1.08853869e-01
  -1.76197171e-01 -9.98622850e-02  3.50769907e-02 -1.17140539e-01
  -1.08470172e-01  1.81861907e-01  1.86852887e-01  6.27809390e-02
   2.14072764e-01  1.96571246e-01 -1.06222264e-01 -7.20103607e-02
   3.00326925e-02  9.78335813e-02 -1.63368043e-02 -1.34352371e-01
   1.07417323e-01  1.19523808e-01 -2.74735224e-02  1.67268977e-01
   7.81604126e-02 -2.67435964e-02 -1.35054318e-02 -5.78976870e-02
   1.53302252e-01  2.64450550e-01 -1.44212604e-01  1.76089928e-02
  -8.04119632e-02  5.72390743e-02 -1.05209975e-02 -1.41192004e-02
   2.09585251e-03 -3.44710867e-03 -3.94694023e-02 -2.07422208e-02
  -5.60291559e-02 -5.40430704e-03  3.15176919e-02 -1.03047118e-01]
 [-5.30627668e-02 -5.73967248e-02  6.33668154e-02 -6.72822148e-02
  -1.72884408e-02 -8.45836475e-02  1.73214614e-01 -4.25877750e-01
   3.57289948e-02 -4.89918962e-02 -2.28317007e-02 -4.67928164e-02
   5.56609854e-02  1.70979798e-01 -1.08733878e-01 -1.23767883e-01
  -2.14282215e-01 -1.98253524e-02  1.50482953e-01 -9.23608691e-02
  -2.83389807e-01 -1.85512811e-01 -9.70080718e-02  3.72365154e-02
   2.00952008e-01 -1.78946912e-01  8.67360458e-02  7.15031698e-02
  -5.93094826e-02  1.66204169e-01 -6.99416026e-02 -4.55589183e-02
   4.20180932e-02  1.19583242e-01 -4.54405546e-02 -3.83089222e-02
  -2.43421361e-01 -8.11099634e-02  7.38612264e-02 -5.72993979e-02
  -5.06554656e-02  6.33085445e-02  1.60879925e-01 -4.72892970e-02
  -3.82365994e-02  1.46224601e-02  6.36200756e-02  1.43065542e-01
   7.26458430e-02  2.97138025e-03  3.61727029e-02 -1.82182621e-02
   2.53416359e-01  1.05778165e-01 -3.34444009e-02  1.81492224e-01
  -1.11914404e-01  2.45353822e-02  1.15460694e-01 -7.04098344e-02
   6.25542831e-03  6.32680813e-03  1.53021485e-01  5.80562502e-02
  -2.34476347e-02 -2.28889417e-02 -2.66282201e-01  6.29622564e-02
   1.62362039e-01  3.01770819e-03  5.63391149e-02 -5.24634542e-03
  -1.50224909e-01  2.44671404e-02 -2.14082301e-01  3.61867249e-02
  -7.60767907e-02 -1.45235315e-01  1.56195918e-02  1.44423768e-01
   5.50959297e-02  7.95303658e-02 -9.82879177e-02  2.15644777e-01
   3.55222002e-02 -2.45703474e-01 -1.17355017e-02  7.83015043e-02
  -2.27932110e-01 -6.18540905e-02  1.04685783e-01  6.99222386e-02
  -1.92230474e-02  6.46396577e-02  5.39272316e-02  6.93340972e-02
  -6.72115013e-02  1.45076603e-01  1.11241927e-02 -1.53041229e-01
  -1.24196246e-01  1.25410855e-01 -1.32584557e-01 -1.75949529e-01
   1.54614940e-01  1.86065316e-01  3.93627994e-02  1.95444658e-01
   9.70789939e-02 -5.98000400e-02 -3.10386228e-03  3.29205431e-02
   1.93651766e-01  1.60821989e-01 -8.43025520e-02  4.48895358e-02
  -7.03547616e-03  3.64250392e-02 -1.17935151e-01  5.98874316e-02
  -1.27062411e-03 -1.71781600e-01 -4.47422685e-03  5.30724451e-02
   1.11118935e-01  6.43737093e-02  1.65094808e-02 -5.52137010e-02]
 [-7.27660805e-02 -9.09049213e-02 -3.39048170e-02 -4.35776897e-02
   1.83125079e-01 -7.58034810e-02  1.85963243e-01 -3.59866649e-01
  -1.39921397e-01 -2.59738299e-03  1.06539361e-01  1.34397998e-01
  -9.96041074e-02  1.29838809e-01 -4.56320010e-02 -2.86428630e-01
  -7.33781382e-02  1.49601206e-01  1.96483701e-01 -9.68118459e-02
  -1.53659299e-01 -2.55489033e-02 -1.40829712e-01  2.21761256e-01
   2.87813526e-02 -8.17777216e-02  2.97614336e-01 -1.52353436e-01
  -3.68796587e-02  1.49909243e-01 -2.11896941e-01  9.20252502e-03
   4.97534797e-02  5.58399670e-02 -1.47760034e-01 -1.10593468e-01
  -1.93378434e-01 -6.42597973e-02  5.61235733e-02  5.15449680e-02
  -1.26618207e-01  1.55457258e-01  3.57490152e-01  1.55597916e-02
  -3.89745198e-02  1.07754953e-03 -7.20512196e-02  1.11050799e-01
   2.37870626e-02 -7.76290372e-02  2.24118382e-01  8.63235369e-02
   2.44989291e-01  1.60750031e-01 -9.51308757e-02  1.67994440e-01
   2.17796806e-02 -2.80450433e-01  1.51830107e-01 -1.66406736e-01
  -5.98426685e-02 -6.68017846e-03  1.43714949e-01  2.17480928e-01
  -1.57481536e-01 -2.19765361e-02 -2.16763884e-01  4.29679044e-02
   3.26059282e-01 -2.39508167e-01  1.81049421e-01 -5.30257523e-02
   5.88632480e-04  2.36503407e-01 -2.30842978e-01  2.79779243e-03
  -1.07879177e-01  6.15456561e-03  2.17874065e-01  4.83940057e-02
   1.27653867e-01 -8.59538000e-03 -2.12583944e-01  2.20944896e-01
   1.64916769e-01 -3.53876054e-02 -4.23152708e-02  2.28417036e-03
  -4.07273889e-01 -1.25657439e-01 -1.35407552e-01  5.94472559e-03
  -1.55337946e-02  4.36600894e-02  2.28504702e-01 -7.39050806e-02
   2.01776117e-01  3.17516416e-01 -2.36283273e-01 -1.44975170e-01
  -1.32235214e-01  9.93249118e-02 -2.81301379e-01 -2.55220216e-02
   6.79976717e-02  2.16496274e-01  4.15400676e-02  5.14556170e-02
   1.21236868e-01 -1.49687931e-01  4.40400355e-02  7.81815723e-02
   2.38435030e-01  2.68024474e-01  1.10147586e-02  3.00473999e-02
   2.14013755e-02 -1.97519697e-02 -1.14250667e-01 -3.10516432e-02
   6.31252825e-02 -4.86814268e-02  3.18684056e-02  8.83742943e-02
   1.26953185e-01 -1.63378656e-01 -1.10274673e-01 -7.64181046e-03]
 [-5.87452874e-02 -4.93464321e-02 -5.58474381e-03 -1.06494486e-01
   1.51028037e-01 -8.30845684e-02  1.23095527e-01 -2.75465041e-01
  -2.84200132e-01 -5.30289263e-02  1.54265434e-01  6.27545267e-02
  -2.37775132e-01  7.78336357e-03  5.35943322e-02 -1.74485654e-01
  -8.72759894e-02  2.16491520e-01  5.93057349e-02 -4.80300114e-02
  -3.45901065e-02  8.90779272e-02 -1.42820150e-01  2.99688131e-01
   5.72721027e-02 -2.31866702e-01  1.82661787e-01 -1.58007786e-01
  -1.28895864e-01  1.70479119e-01 -2.38698080e-01  1.14894181e-01
   8.54059085e-02  1.71994790e-02 -1.24824211e-01 -4.83575985e-02
  -6.37884438e-02  1.00050010e-01 -3.69207077e-02 -9.31732729e-02
  -2.50562161e-01 -1.00907579e-01  1.41190812e-01  1.27644120e-02
  -9.06472281e-02 -1.14838807e-02 -2.72594064e-01  8.61408934e-02
   1.59116775e-01 -1.97353080e-01  3.43535423e-01 -1.01470493e-01
   4.05294567e-01  1.91053256e-01 -6.57447055e-03  1.08294316e-01
   4.36182506e-02 -1.33349344e-01  1.36560187e-01 -1.38753936e-01
  -4.96924901e-03  1.67700306e-01  1.97357818e-01  2.69921690e-01
  -7.44199753e-02  1.30011924e-02 -2.45031372e-01 -1.32824304e-02
   3.62023085e-01 -1.68839708e-01  1.24915063e-01 -1.13516778e-01
  -5.49142882e-02  1.94105878e-01 -2.09902301e-01  1.69121191e-01
  -2.43345782e-01  1.21524423e-01  2.98696965e-01  3.34854051e-02
   5.07849567e-02 -8.86052400e-02 -2.51414210e-01  6.00221101e-03
   2.13697881e-01 -4.61533777e-02  1.30284935e-01  4.40347614e-03
  -1.86978713e-01 -7.60278627e-02 -2.98022240e-01 -4.13524471e-02
  -7.18651712e-02  1.59322619e-02  2.02161551e-01  4.67812791e-02
   1.43034741e-01  4.32182252e-01 -1.12353683e-01  9.03598070e-02
  -4.39050384e-02  1.02718756e-01 -1.24431618e-01 -1.61339492e-02
   6.40420476e-04  2.78637826e-01 -6.94581717e-02  3.24594229e-02
   8.54697973e-02 -3.39177251e-01  3.51417661e-02  1.24606058e-01
   3.89861703e-01  2.73601413e-01 -1.03622831e-01  4.03438844e-02
   4.29547429e-02 -1.38847679e-01 -1.05314076e-01  5.31143695e-03
   7.35397935e-02 -6.92197680e-02 -1.38508186e-01  8.47494230e-02
  -3.37289870e-02 -1.40054479e-01 -1.42247397e-02  1.11395732e-01]
 [-1.89372644e-01  3.68294679e-02  3.86349782e-02  4.74350229e-02
  -1.46219939e-01 -1.23831868e-01  4.85536903e-02 -4.95672524e-02
  -2.19389111e-01  9.87780094e-03  1.31044388e-01  4.75680530e-02
  -2.17419326e-01 -1.02979876e-01  9.50205773e-02 -6.31284118e-02
  -3.46397981e-02 -2.12943815e-02  1.11036204e-01  3.88176516e-02
   7.64758959e-02 -5.05103320e-02  2.83406619e-02 -1.31721556e-01
   1.95100054e-01  3.43229622e-02  9.60155856e-03 -3.13178569e-01
   4.46336418e-02  2.18572319e-01 -2.10108787e-01 -6.01547062e-02
  -9.41704661e-02 -6.52785003e-02 -1.42936617e-01 -8.09784979e-02
   5.65573461e-02 -1.00644588e-01  1.91340670e-01  1.08868435e-01
  -9.02037788e-03 -1.97580695e-01 -2.77403779e-02 -5.43502867e-02
   1.82485264e-02  3.54958288e-02 -1.65311992e-01 -1.07489340e-01
   6.37580380e-02  1.93432659e-01  1.65622324e-01 -1.61242813e-01
   2.58980006e-01 -2.04100177e-01 -7.09111392e-02  1.62487224e-01
  -2.15966925e-01  1.26318306e-01  4.78004478e-02  2.09241323e-02
   1.07030496e-02  4.43156399e-02 -1.55162722e-01 -4.46013995e-02
   2.07113534e-01  1.90709978e-01 -3.03693801e-01 -1.62825324e-02
  -1.27907589e-01 -1.46922423e-02  4.86782789e-02 -7.38199875e-02
   2.16773167e-01 -1.14488497e-01 -1.09309562e-01 -1.67799085e-01
  -7.00859651e-02  2.97272913e-02 -5.56392502e-03  1.33850928e-02
  -1.78202793e-01  3.20538059e-02 -6.75927773e-02  7.71619380e-02
  -2.09744036e-01  9.74619389e-02  4.52350415e-02  8.21257904e-02
   2.77740121e-01 -1.80579368e-02 -3.40058088e-01 -2.07162887e-01
  -1.76813938e-02  2.42214520e-02  7.97254965e-03 -2.19841450e-02
  -1.57314271e-01  4.96691555e-01  1.22126609e-01  7.91686028e-02
   2.05378041e-01 -1.76089227e-01 -1.91043075e-02 -2.94761211e-02
  -1.09569617e-01  3.85561064e-02  9.55171734e-02 -4.71099466e-03
  -6.22450225e-02 -2.81377971e-01  3.35318074e-02  2.09143072e-01
   2.87290048e-02  8.61321688e-02  6.87757358e-02 -5.07313535e-02
  -6.65831640e-02 -9.54071507e-02 -1.99856665e-02 -8.29175711e-02
   1.18625127e-01  6.11165129e-02 -8.24669376e-03  4.02163863e-02
  -1.83177739e-01 -3.82248722e-02 -6.09814338e-02 -1.61652669e-01]
 [-1.26774222e-01  3.83130051e-02  1.26884758e-01 -3.35516408e-02
   1.72965527e-02 -2.66486168e-01 -8.99979547e-02 -1.80658743e-01
  -2.54565209e-01  1.30908057e-01  1.38569638e-01 -6.22726232e-02
  -3.00457776e-02  2.54349351e-01  1.91775575e-01 -1.16219491e-01
  -5.68860769e-02 -8.34566206e-02  4.86994326e-01 -4.52107983e-04
  -1.84754834e-01 -1.92398950e-02 -9.82191488e-02 -2.06013307e-01
   3.48458171e-01  3.31661403e-02  3.08434308e-01 -2.41330132e-01
  -9.33630392e-02  2.36495748e-01 -1.30230010e-01 -4.55070511e-02
  -3.09127402e-02 -1.19492330e-01 -4.56363969e-02 -1.71387345e-01
   1.51802465e-01 -2.32760474e-01  3.03903520e-01  4.39211018e-02
  -1.27657697e-01  2.08620913e-02  2.98703790e-01  2.95462031e-02
  -8.95410404e-02  6.39810860e-02  5.78821935e-02  1.20555900e-01
   7.29600191e-02  3.94183360e-02 -1.82009693e-02 -2.61026889e-01
   3.59173357e-01 -1.95151437e-02 -2.33742043e-01  2.77231783e-01
  -2.76898593e-01 -6.75217062e-02  3.91927361e-03 -2.28237346e-01
   2.57809926e-02 -2.76598409e-02 -5.77165447e-02  7.78330564e-02
   2.81887829e-01  1.82898745e-01 -8.99729654e-02  9.07413568e-03
   1.37811780e-01 -1.05342552e-01  6.12080060e-02 -1.16336301e-01
   2.31986567e-01 -1.78094786e-02 -2.11489096e-01 -2.07498953e-01
  -2.28269503e-01 -1.73345178e-01 -9.18755680e-02 -6.72710612e-02
  -9.62539986e-02  7.48633407e-03 -2.46864289e-01  8.65908638e-02
  -7.92807117e-02  1.99304864e-01 -1.20379791e-01  1.60241872e-01
   1.45433187e-01 -3.62881690e-01 -7.21404478e-02 -2.52152681e-01
   1.27175316e-01  4.36925888e-02  2.55296946e-01 -1.40430853e-02
  -1.57462090e-01  2.82179296e-01 -2.63619035e-01 -1.51049539e-01
   9.85831469e-02 -2.34870035e-02 -3.86497855e-01 -1.18708983e-01
   1.54602975e-01  2.82098681e-01  5.58465952e-03 -1.27502307e-01
  -2.15617001e-01 -3.62027377e-01 -7.47017488e-02  1.02820121e-01
   1.45369038e-01  2.03597829e-01  1.98499840e-02 -8.25759172e-02
   9.98923331e-02 -1.35032639e-01 -9.59799513e-02 -8.07091370e-02
   2.22592294e-01 -1.68241948e-01 -9.04969946e-02 -3.59276608e-02
   8.13814104e-02 -1.99908838e-01 -7.50696808e-02 -1.92947552e-01]
 [ 1.31992191e-01  1.81593791e-01  3.92058343e-02 -1.04169458e-01
   9.31953862e-02 -2.65537649e-01 -1.61525577e-01 -1.84521496e-01
  -1.46699935e-01 -4.50936370e-02  3.72801721e-02 -6.20188378e-02
   1.53497458e-01  2.20524818e-01  1.95663795e-01 -2.38013089e-01
  -8.32971036e-02 -2.22306475e-01  2.26034150e-01  1.03608340e-01
  -4.62413952e-02 -1.47803426e-01 -3.41983959e-02  2.59792171e-02
   2.76694119e-01 -1.53006673e-01  2.13513479e-01 -2.21307874e-01
   6.36689737e-02  2.11253539e-01 -1.54224664e-01  1.00812919e-01
   1.37937695e-01 -1.98250443e-01  3.63196409e-03  8.76060948e-02
   1.65323943e-01 -1.14483751e-01  1.21663898e-01 -1.14758424e-01
  -2.89205927e-02 -1.23950973e-01  1.86048299e-01 -1.44826351e-02
  -1.21746749e-01 -2.20712483e-01  1.38437673e-01  1.10135101e-01
   2.45990992e-01 -1.05787396e-01  3.36037166e-02 -2.30455533e-01
   4.78544056e-01  1.78179815e-01 -1.89875603e-01  7.66898319e-02
  -1.96700007e-01 -7.40242600e-02  5.74257225e-03 -1.03350125e-01
   8.22973996e-03  3.31603661e-02  2.57238150e-01  7.32005434e-03
  -1.72816403e-02  8.58910754e-03 -1.14076212e-01  4.97246310e-02
   1.40438631e-01  9.58324075e-02  9.66679975e-02 -4.21077339e-03
   1.70328766e-01  5.65200672e-02 -1.20455146e-01 -1.63182661e-01
  -9.94290188e-02 -1.55891478e-01  2.54441708e-01  1.66430220e-01
   1.40725672e-01  1.64404795e-01 -1.36179537e-01  1.62027478e-01
   8.18733219e-03  9.94113088e-02 -5.07070236e-02  2.21141696e-01
  -2.39883866e-02 -3.27798992e-01  2.41499081e-01 -1.24438569e-01
  -4.63047139e-02  3.17146294e-02  3.16118270e-01 -4.73197550e-02
  -4.49392274e-02  2.56895304e-01 -1.58596486e-01 -2.50350326e-01
  -6.32085502e-02  8.83566886e-02 -1.83474049e-01 -7.55418465e-02
   6.29541576e-02  3.52343410e-01 -1.48101859e-02 -6.01904839e-03
  -3.25910062e-01 -3.47646028e-01  4.97400714e-03  2.24611208e-01
   7.67638236e-02  1.16661005e-01 -1.36509910e-03 -1.55465573e-01
   2.60393806e-02 -5.28055131e-02 -2.15216316e-02 -8.31591710e-02
  -4.53620888e-02 -1.71365008e-01 -4.50394070e-03 -7.88510516e-02
   1.51985541e-01 -8.84139091e-02 -1.27322391e-01 -1.60837457e-01]
 [ 1.63512513e-01  8.49493891e-02  9.20045823e-02 -8.80101100e-02
   4.74645942e-01 -1.50862142e-01  3.03981993e-02 -3.08799654e-01
  -1.96175918e-01  4.34546955e-02  5.18674403e-02  8.84226188e-02
   1.67284936e-01  2.14284584e-01 -1.54886708e-01 -2.18049884e-01
  -1.20504014e-01  2.37014387e-02  2.02312782e-01  1.42867103e-01
  -1.62492082e-01 -9.05302316e-02 -5.56784831e-02  2.26347998e-01
   1.24555945e-01 -2.33002841e-01  1.95698723e-01 -1.15212984e-01
   3.01699992e-02  1.36916980e-01 -4.99728508e-02  6.45669252e-02
   2.03526542e-01 -2.67894626e-01 -1.11723505e-02  3.67561430e-02
   3.42000574e-02  1.29096908e-02 -1.21291883e-01 -1.37381360e-01
  -1.91954523e-01  1.40619740e-01  1.96180999e-01  6.08087555e-02
  -1.55149966e-01 -1.65636912e-01 -8.73206109e-02  8.96728486e-02
   4.08136398e-02 -1.45836189e-01  3.67220654e-03 -1.03262067e-01
   4.34114695e-01  1.96282357e-01 -1.04946792e-01  1.30004555e-01
   1.40175475e-02 -2.24868968e-01  1.09168872e-01 -4.35185768e-02
   3.79847176e-02  2.91294515e-01  3.16117674e-01  5.41654490e-02
  -5.37710749e-02 -1.40693665e-01 -1.96589246e-01  2.07674816e-01
   3.70397508e-01  2.62796711e-02  9.15218517e-02  9.55581963e-02
   1.04840370e-02  2.80841619e-01 -6.45048842e-02 -4.07156907e-02
  -2.37924799e-01 -1.13805607e-01  4.66806293e-01  1.79345116e-01
   9.88732651e-02  1.47607565e-01 -1.93024740e-01  2.39176035e-01
   2.45140895e-01  7.39251748e-02 -2.19912186e-01  8.28977972e-02
  -3.12319607e-01 -3.96174014e-01  1.51975319e-01 -1.10251114e-01
  -8.35673660e-02  5.06964214e-02  2.35864460e-01 -3.28746065e-02
   1.45572156e-01  2.17739552e-01 -1.34425476e-01 -2.59326458e-01
  -9.13204849e-02  2.77216971e-01 -2.11907402e-02 -1.81236658e-02
   2.87692279e-01  3.75621349e-01  2.56996937e-02  1.10137183e-02
  -9.19638351e-02 -3.41732085e-01 -2.45349016e-02  2.76234169e-02
   1.57121450e-01  3.44135851e-01  4.13112938e-02 -1.18881151e-01
   4.20704931e-02 -3.33243646e-02 -1.61673456e-01 -1.36419550e-01
  -2.18927145e-01 -7.34354928e-02 -1.42853647e-01 -1.13353431e-01
   3.04701388e-01 -1.77233294e-01 -6.06766380e-02 -7.91595951e-02]
 [-6.79644346e-02 -2.21412271e-01 -8.38712677e-02  6.35066852e-02
   2.98322737e-01  3.03347081e-01  1.51725532e-02 -3.39741051e-01
  -1.32227913e-02 -2.72606798e-02 -5.09305298e-02  2.59239793e-01
  -2.00415812e-02  2.14413285e-01 -2.03367084e-01 -8.43896791e-02
  -8.30657557e-02  3.16847175e-01  1.80123568e-01 -9.38111693e-02
  -1.69838190e-01  2.40543246e-01 -1.58048764e-01  2.49952018e-01
  -1.66100562e-02 -1.43637240e-01  3.00004572e-01 -8.65522847e-02
  -6.22547930e-03 -2.48613551e-01 -5.62823750e-02 -1.64746881e-01
   2.04437058e-02 -1.34895533e-01 -2.18695737e-02 -3.60053778e-01
  -3.16521227e-02  2.65265822e-01 -1.17455684e-01  2.77059704e-01
  -1.09861761e-01  2.39137873e-01  3.41005802e-01 -2.21924186e-02
  -1.33167118e-01 -5.95809817e-02 -1.92673758e-01 -1.08019695e-01
  -1.37399703e-01 -6.17241040e-02 -4.51064967e-02 -1.21675245e-02
   1.40486151e-01  1.60876989e-01  4.91313590e-03  3.93907055e-02
   2.56352752e-01 -2.16643393e-01  3.17066282e-01  8.53196681e-02
  -1.54256582e-01  1.28634527e-01  1.60500184e-01  1.41632169e-01
  -2.07290798e-01 -2.64035985e-02 -2.12406874e-01  2.09755450e-01
   3.08386952e-01 -3.15135777e-01  6.02098322e-03  6.33014515e-02
  -7.99884871e-02  2.73600042e-01 -1.52729943e-01  1.36701524e-01
  -3.17590952e-01  1.70878977e-01  2.66648263e-01  3.73919085e-02
   2.39299182e-02  2.45643631e-02 -1.38429075e-01  2.23132342e-01
   3.23430806e-01  3.44481245e-02 -3.70468408e-01 -1.02819212e-01
  -1.37801925e-02 -1.93002030e-01 -2.83944249e-01 -1.55200884e-01
   1.60270128e-02  3.55735153e-01  2.00025290e-01  2.65625492e-02
   2.49427587e-01  3.00592899e-01 -8.68992284e-02 -1.88258469e-01
  -5.67358546e-03  3.68290484e-01 -7.95976594e-02 -1.01393700e-01
   2.60522574e-01  2.79068172e-01 -2.27084264e-01  8.41563344e-02
   3.06437910e-01 -8.13394412e-02 -2.65767183e-02  7.78319240e-02
   2.45270386e-01  3.33550125e-01 -3.17864008e-02  1.11375056e-01
  -4.39691730e-02 -4.15582322e-02 -8.14605504e-02  9.01012565e-04
   4.07077596e-02  3.33381772e-01 -7.48203024e-02  6.46888390e-02
   3.23523939e-01 -1.42859355e-01 -1.14066176e-01 -1.72261789e-01]
 [-1.73909605e-01 -1.04510799e-01  9.17920377e-03  4.62507121e-02
   3.24606955e-01  9.86450762e-02 -8.59095156e-03 -3.46077472e-01
  -5.90907037e-03  2.17894837e-02  2.76096612e-02  2.19237521e-01
  -1.40770718e-01  2.20762953e-01 -1.87398940e-01 -4.74238694e-02
   1.08684814e-02  1.75189272e-01  1.37768015e-01 -1.83204729e-02
  -1.01667807e-01  2.45000988e-01 -1.97512209e-01  1.44432604e-01
   4.57004458e-02 -1.75136879e-01  1.85171828e-01 -1.62643224e-01
  -1.17718115e-01 -1.99653611e-01  2.74487846e-02 -2.14947343e-01
  -1.04257418e-02 -8.83976743e-02  5.03710434e-02 -2.43769869e-01
   1.56592671e-02  1.82890251e-01 -1.24943733e-01  2.36070678e-01
